-0.8051575896314738
-0.2030620454890386
-0.8646541230682483
-0.743997359033518
0.3384890078853626
-0.369124484361524
-0.6787205642788714
-0.9073581482392985
-0.4243627120552471
-0.0717595369792623
0.8506193768679629
-0.5444104129230372
0.6797887703006853
0.6629910088705515
0.6049513959434496
0.07332684303741988
-0.08941170297382084
0.47745705090093216
0.18948238349569957
-0.6367102011630823
0.17010431599370235
-0.18362245467091465
0.2881735435254771
-0.7431899505474109
-0.8643546457339888
0.9649974891285269
0.995617551270271
-0.8790271497999542
-0.6406882911285778
0.5733962318406891
0.8526214800581657
-0.4066211736670702
-0.7190837007266646
0.7861489906001122
0.9976554118244492
0.70300701199201
0.5768283980870623
-0.19114286964063076
-0.3912359568713486
0.13325664173696428
0.09658709793448317
0.4517633245146937
-0.5943665634493127
-0.021501840953889628
-0.33305091840033874
-0.9959055418607983
-0.260316421623759
0.6394865037334547
-0.0592650845165803
0.1096653757757271
0.8950699818154684
0.06973246283465584
-0.06691981739448583
0.4509821047559037
0.21022351158701835
0.2654810299773802
-0.3420350047805343
0.9543668978568183
0.026106958600280672
-0.4162559190396775
0.6496982581294333
0.17410521222384046
-0.5825757269262357
0.4774131620373592
0.19177750476637523
0.2557692702437102
0.555057860187322
0.23410434138118297
0.8819520157087439
-0.5442852103620412
0.6970388605826612
-0.4057117499787677
0.39361837574069636
0.7835059915413303
-0.288997018065569
-0.5580044476678538
0.7992913129714154
0.11831846211192665
-0.016104029050709956
-0.0194639311985354
0.45815069701839684
0.6756390070951588
0.014704798562462873
0.5095421050589781
-0.8018533243287289
-0.6136198968684534
-0.6634588174010907
0.34774398338322055
0.7113820692573263
0.02597094325996352
-0.6122767631606423
-0.42329443488014795
-0.2584033433926851
0.16048657704664282
-0.6112854840872979
0.24780993861597622
-0.16963486584230636
0.16549639165798968
-0.9733615926759207
-0.11530087805360978
-0.38239399017236697
-0.6227775856965667
0.5254214895523945
-0.897018289879592
-0.4454939350864362
-0.34662081591273974
-0.3777575546141285
-0.9021718865507227
-0.7131542816143006
-0.5364252743419573
0.5153576512047575
0.2002414253604261
-0.7850269222053785
0.8496673010740508
0.6691979276393945
0.57928036355129
0.36546185129057807
-0.71576121476933
0.5240563463609185
-0.7504611518288422
0.12166499277981768
0.027144399041333145
0.23833768911418085
0.5623450763577142
-0.25383365587442563
-0.7224586546947918
-0.034993344362818535
0.007486781257097785
-0.16793240835035483
0.8690187321885499
0.9296814771698849
0.5422977450440856
-0.30839362382370217
0.09888473078677773
-0.11134739663622817
-0.19788915634888493
-0.9513059523945278
-0.7227824418924778
0.9370269055973619
-0.6823456078381214
-0.3171714831152166
0.037987341692932164
-0.4414045665465909
0.8109450188555081
0.19611333267013764
0.3686476172078881
-0.8438808916726208
0.6658385277407755
-0.5698212523214223
-0.9609071583609115
0.4730568679546121
-0.3195822301797149
-0.3115047427702271
0.47938555866514276
-0.2720434563069356
-0.23434001782627267
-0.4511875296153385
0.23537384693065322
-0.3976791163040354
-0.8662998926072594
-0.9297906781901837
-0.42498135917656765
0.43578047859799973
0.2214881312670942
0.4201788757420497
0.44201000558679393
-0.7875051449444024
0.9853083736900918
-0.8165247095698172
0.6946437367484959
0.24474539409962404
-0.47768635667119774
0.2123305434516234
0.003184402237021322
0.5282521026447917
0.3603180074609196
-0.6689586281771869
-0.40950724979249453
0.00778948965233095
-0.7513254692633748
-0.5420569031589306
0.5826917053324623
0.15252905685125606
0.783421394596777
-0.8805647679320594
0.12054385388580058
0.4750135327649698
-0.33156674835806177
0.4601729768721037
0.1448739455986099
-0.8202921351977568
0.9947569030558672
0.11712046460208092
-0.3450180858615892
0.21508776019123022
0.05215401380126106
0.436958037565335
0.9584085793645409
0.5923492351651471
-0.9886140206149372
4.586331880673226
0.6317913514442418
-1.5168110836662445
-3.148225351381364
-4.594087671552617
3.2763969744198076
-0.6754507608276276
-5.527361995240502
-0.7996988285324601
0.468023343615802
-2.8457446068890557
6.578871337686928
-4.706967071789324
-3.0032722892004537
1.9973305760537954
-1.0993221353099722
7.688742257999951
-3.3246115832208547
7.754657857905047
6.527123674131332
-0.7973946675960237
-3.2652090704513816
9.300035225689458
-0.8753061966301923
-0.29135408742391755
-0.14071110009969884
-0.2022847440765487
0.9331623220160097
0.06542620601804224
0.5789066113074377
0.13954922447210694
9.357033553867009
0.8437766651485689
-0.06396366330314394
-2.0900297059193287
-1.250994319892999
-2.7493005814800164
1.1254337342424745
0.9312739960757406
1.3593803157407967
-2.811643785172315
1.28123976345874
-5.09897555147893
-1.5653326632458127
-0.8375135996191264
-2.823737298132279
0.12169647987936348
0.8004303870004746
-4.281345649527563
-2.566918398712795
1.0698099446893456
0.4640439818088336
0.44298692364505915
-4.854382368748929
-2.175772392577944
-0.5783198519511942
-1.3901323778115624
-0.5573624562018207
0.4567539861014428
-6.0272698908937015
-0.31700088212022237
-0.3489237272533942
-0.8017090249917209
-1.5781893623417784
-2.333610411905144
0.6337960852700387
-1.6739220747078558
0.6234708899035074
-3.069194130467648
-4.46516994584639
1.3851978267988598
3.2147500647927503
-2.183411161860691
-2.818341509969691
0.7076657733103229
-5.540768549553898
2.2192784457802923
1.1642593490366369
-1.061361674908942
-2.575557212086412
1.4899735540568289
-0.9608371792002461
-0.48801831740104423
4.062536812815749
1.4425017341487298
-1.0139200715287577
-1.82300281492046
-1.9785458295145473
-3.2109747466831045
-1.6176966006523412
0.5964568733901229
3.8552698716337055
-2.5880686930447103
-0.05524024339458234
-0.04106285134502217
-2.728331872852712
-5.490027124300219
-1.1341760740023112
-1.6862234281326403
-4.441549428249119
1.562980082203097
12.004950554355176
-2.579037198563667
7.667546490628222
7.834169152830046
8.496783576545832
2.218267966231921
-5.796850048501688
-2.68991419279399
-3.6657212459022985
4.681543809168074
0.10123738457834623
-3.497500291471774
4.15807930806557
-3.8765682834612845
-3.1005361657173043
3.111283346506915
-1.1808944443987843
12.6938807619798
2.7439570947612864
-6.325198803027907
-1.2805864587081222
13.803993855709768
-1.124162087801935
-3.375583358761386
-0.6623354970323748
0.27511678493816183
-1.6529386266169184
0.9075761015258946
4.495467177510407
-1.119884392314522
-0.10519909416195274
-7.873096764380437
-6.5447346268903095
-3.6451856793478035
-6.123706503965333
-11.806859729521797
0.7500278941506908
-0.20551159050997173
6.416187343451081
-2.8470802705784637
-1.278563299486137
-2.992659410293669
-10.11780865303673
14.066032830202033
-0.7065762950806538
-1.3342770403689201
-2.1759366238391045
-4.599922274732864
-6.787845346065157
10.699097424830018
-2.6833962203905717
3.395343521674103
-1.4535359947498567
-4.752957536485015
12.391816923596437
-4.504900083343744
-3.58304089506941
-0.7879927550083836
-5.053226833407355
-4.114276294628509
4.999349330966126
-0.8205294130108193
-7.642801651983818
-2.1974647668140843
-0.19671236834390932
0.21753042533645722
5.409240202071381
0.6326358071688802
-5.0260709445660785
7.305565643921871
-1.992868245777178
-1.8556071694665714
0.4744386305776791
-2.4783291913352525
-1.677172159686127
-2.7801047240319896
-2.2266356872395074
-2.9883467541149384
-2.2004774424738964
-2.305376829015183
4.937113408172957
-0.2677950962679902
3.024385304605418
12.400681087125122
4.407732573102774
-7.996387948928554
-2.327491693749989
1.8302529389865883
1.0694110695195793
-1.7676391266115383
-3.5181801076036967
-5.127373817760939
-1.2589457927659993
-0.8128841650982176
1.8648208989035597
-5.001806195049043
-5.056506881557538
1.9556512206619117
-1.8584972472888406
10.031476298589107
-2.451548281273526
0.044753962708906456
0.265551281541588
3.1581188701526353
4.808142936400108
-1.158546158216956
-3.1674833075575575
-7.825539611906067
-2.017057382856045
-1.4870777624345766
-5.304072463912882
-7.254812083433302
-5.463831982867925
-3.8512920761599374
-2.7602192234835807
3.531777105234932
-1.9194666119357562
18.532437615756017
-0.9686038454450043
-12.575539414280222
-2.480784486803007
3.392099744290529
-1.4470130747785628
-2.253546933869413
8.581602510993346
-2.3401939173830817
1.1419752206746205
-3.023679893419745
1.4363557823509838
2.6666565763022776
7.262192174401577
0.2546002532187686
-0.6868161530302868
10.472709639528755
-6.070516642602954
-5.87135370273885
2.065726318227278
8.284617075812664
6.813359736372135
-0.3448264853937869
10.482758488917362
-2.8546471013661767
-8.030457892056656
1.3111638360982358
5.20719497254083
-1.6313847813149087
0.8924590296376561
-8.732423884523056
-7.571261826082764
10.111589007009401
-1.4837543336938
11.329775841684791
3.1614649318832035
-4.43705540175158
12.567401097378953
-4.158841760455978
-4.42087918667674
-1.0047507200749852
-6.462410571333257
-4.253257144186669
3.5215095746180265
-3.673713073494779
2.826554824969254
-6.022950398523771
-12.286591327670068
-0.051869322571803995
4.750006681988778
-4.838388441540889
-2.682477532925735
10.375325221125689
9.959279768197415
-1.6545878666671407
-6.035917988110975
-1.5793269849896463
-10.188687318066568
-3.2817310304936664
-0.7189279666818184
-1.8538777276817286
-11.48048138659006
2.9852957752066898
-2.9618641857592176
-6.930093084342177
16.788385402310244
3.128446451640706
-4.603612806528388
-5.9984049124751175
-3.5743380457769733
4.649037987060318
-7.457293003053632
1.0033361789124937
3.148699097079132
-8.071847357235958
7.582868000256589
9.396891169737735
3.8913877038834395
-4.284491528252741
-2.4607617151493186
5.1944219891259875
-0.33930215913658224
8.145468587324293
-0.9264441310800737
14.1696483979409
4.015835677469802
-4.843431298759519
-5.758031678483621
0.08646921047730877
-6.257208538050435
-4.544710846775068
-4.782570693760632
8.726646236990142
-8.696545995148488
8.686571777916589
-7.839638174336296
9.881295208315086
-1.042170551203951
-6.647709386051261
9.122996485144208
-6.772952204369581
14.718837896483205
-8.66967681729471
-6.787282963632782
-0.9534820625159361
-3.7875972390806583
3.9957263487111727
3.034332853177629
10.07151724979627
-1.9800237971784076
7.346667760554477
4.940550997657477
-1.2406472208695505
2.513819834870777
-7.206027451005117
-10.408814574341893
6.080320066033053
-6.375374904547518
-3.707949600312239
1.3374139193896222
-6.459274642521181
-2.422762742506243
-5.073099958602627
-1.6236461000401312
-4.854045054472549
-5.375922155703811
0.9968984424161513
-7.988572122570425
-1.7298721202720615
1.5660076389558333
-7.40861095096711
-9.214674111252606
5.522801884956009
-12.153236826277986
-1.7910865826332658
-6.968640226804713
-10.065927656353484
1.2966014641758592
-2.175743857743134
-5.259024057748409
0.19602064002401887
-0.9808501316330549
-10.936861679285407
-2.446719103504104
0.31922219232225885
3.9089599694357475
-5.78199717352476
5.666321642479421
2.087633833316504
-0.5703598624699343
2.7372869755715294
-9.358378662959161
10.456708512038814
5.3069287496657775
-0.06515029753242325
-10.998330103938407
-2.449442264754587
-5.103963064075566
1.3597912346358414
-3.5467725872416707
11.988699996059331
-12.335910592894663
5.8940053971048805
2.47332393785851
-4.132640007654495
17.54145700409352
3.8654374135196696
-2.7633504323170013
-5.256866207429344
10.89653772058526
-12.716424560809404
2.0893121275453437
8.260731981303223
-1.8616222802526576
-1.9307715000388401
-1.635438669629863
-4.404581197155485
3.684983321320323
2.5201700328235814
-6.612071096243686
3.0401668112039184
0.5604754809898441
8.299156327041889
1.1405648765917697
-0.6275462467536955
-13.438137559827814
-5.766769367709159
1.7891739434996952
-3.9703681988088864
-5.716588849836076
2.4444445455012143
-11.860955557093838
8.037718556426206
9.420094947295903
-8.091758215645246
7.332888931732405
11.086620024546333
-8.44208582363309
-8.715073732464953
-16.676299936915814
-0.5711320209984484
-7.75428324927181
-18.40319543948179
-18.25526207166733
5.370739891474203
-6.901742920714826
15.714151787632918
-10.086947660590782
8.967773217710644
-14.510952541781606
-9.203685686150088
10.650004087405078
-3.7224595362103408
-11.845662290553804
-15.329782316004115
-6.740842849442682
-17.373140616642228
-10.937591004688056
-8.721896648013294
7.60450908840354
3.175900892150329
3.9170801328088403
-9.769522802016722
-8.84316384751411
-11.823043918326633
11.06769839350553
-1.6116594040238785
-5.032700404734055
5.504289412886523
8.144546411978613
9.546079510672056
1.3887252542227662
6.2896797074635415
7.215197653375627
-7.7551175017472795
6.815718308965719
-6.627878966110168
-3.60540746069016
-2.3152868738063446
-12.33603545813544
-0.9864380809417954
0.8191970512615451
7.4453531502601535
11.418962502760158
5.4715427205324465
-7.299931646740023
0.1553613425153834
-11.339769154781704
2.978928126620084
-0.5701243837105578
7.106187150897741
0.8135881939316717
0.6831224445957327
2.888299443337684
14.632636597049379
-10.149445153896213
1.6638156025337052
-6.140568698548069
-7.527880931540429
-4.253756067547024
-8.327521234855713
-8.627683006206556
3.3198483095173086
-15.921622901553485
-2.7144089025171545
4.161403185012033
10.94530598858275
5.612844959205659
-4.343152143738335
-8.052193628275818
-0.21447564230337943
-6.145719459767939
5.450420938886497
-0.546072049786346
3.158210184059388
9.170917575185513
-0.7653763687817471
-4.99246156549409
-0.5968292433519832
-9.33362936372998
4.936084483069877
13.455577589894062
18.53847697870935
12.153984632874154
-1.338353320654791
8.716158816592676
0.702967100992904
-1.832952469605147
1.36632758188621
-9.864060016790843
-0.9949765651297804
-13.63913561004088
-16.330459385748714
-6.026221294980871
-5.475625271267896
-5.547776989680035
-6.341009384527096
-7.943413261400479
-12.081407323039677
-6.910670956405494
-0.2767455265422648
3.0316883985519243
4.970441206398692
1.8279885438165129
-9.48608748835924
0.8322594301643826
11.455777273742859
-6.243703121599811
18.05394361424254
25.714614954236595
0.35105420909011237
-5.838753109886108
-0.30380425408583467
3.714779183256812
-0.04073619056383598
-7.1402242339639335
-10.686783286196475
-10.137105898314099
5.592411139275847
0.49564684740125065
-5.996538726335009
-6.555541757732089
-6.007097582967887
8.205762049751208
-0.38036658925285877
-6.16360952551413
-1.280930613937098
9.809640731556424
3.000115824746611
-17.255173240409228
2.766131487842965
2.0960668965274762
9.036193928423415
-18.082869443843098
-4.9889813137883
-13.206695291852963
-15.41335617551745
-4.980525552683859
0.6614779604015352
-10.982048478371771
-0.6673840993220993
8.125136416512648
-5.445054129970079
-1.6259104448704733
-0.2797565483686396
-7.475923805468647
-3.3668526669615857
-5.003297344530929
-11.13165478452039
-14.01873655636365
-7.9897661260117685
-9.547014707084756
2.027332180942626
-2.018480784257671
-13.40105679694423
-15.48328716565843
-9.05231709093387
7.104889273844665
-7.200247500937759
-6.3484808337015775
-13.320129833471317
-15.35522696147862
-1.7822216158449804
13.972257448486705
2.1981887993665006
-9.291958065589359
6.732223424293163
-12.694302605427051
11.065802269205186
0.384662486309471
-3.9048769509699097
2.457936498724394
11.554081719740143
9.697744296658545
5.782815549948245
2.5593602686873815
0.8740122269897476
-4.392357079314359
9.64089039030765
-2.245963696988456
10.798709020515917
-6.219971995935512
-3.895202214772249
7.064798085480768
-1.6827058925276999
-14.34445727026824
-0.05542936653655787
-11.588202035794254
-0.17341910738234545
-5.967290507518636
-7.9618351795636775
3.6827579940912325
-7.873206430299022
-6.804053742186566
-14.515351184498202
4.261631499327738
-7.05151201385386
14.479583835971795
0.3893992411687541
-8.221544776055502
1.1860115421672446
12.546039654999802
-3.0892699790775104
-5.761185573243414
5.734733942542932
-3.0125480104271807
4.598076679851278
-3.4711492358660347
-10.268083965447081
-10.277397908049892
12.371856180557812
-11.21059911471358
-9.445271525414121
6.532272120338149
-3.8466550151552408
-8.962191731410966
-11.570455660512868
-17.95070750404987
6.019478449777364
4.078107238465491
-6.2389195593150495
6.029937420351463
-11.936339871451453
-0.3328072357607155
2.255168020535937
-11.705942305914832
-0.8839540703572454
21.758144777851705
-13.856922391478093
9.576262125363684
0.3895885830222621
-0.44517379605492696
0.40646295469046423
-14.572983250025038
9.50998516365245
10.873008718092146
7.022359516768489
-1.0244063460412784
1.383559954606872
11.713779432406138
-1.9581086557060934
-18.736618256280032
6.054669051981528
-18.10266702914175
5.549863081249928
6.71922043577334
7.588893381803377
3.188252787689214
-7.8584986148666305
3.6421589917588792
-1.6401400089776055
4.054208194034082
7.051591765282405
-6.526075602955056
4.185259414182289
12.163337534303459
1.9426521994743535
5.804457107026754
2.782033697915937
-7.125311443785324
2.0154458206651866
13.80287858361784
-6.763610883914693
-8.465293754304128
1.9007704460854074
-7.567849309300859
-6.873430950858739
-19.42395926288914
6.969490486779565
11.311441467386704
-6.579223817014264
-11.774230856177063
1.1365562650704542
16.982262955921588
-10.86574192097996
7.163336492715079
-12.7122914838569
-6.727034365019593
-7.704909107135356
14.899320145646096
-7.412424064201565
2.741561244178689
-1.6174670442935664
3.624777551163235
-0.11864601701063761
3.1531568558425493
-16.32959759393206
14.52684263345124
1.400694499429528
9.031275598663631
2.0579344910654633
-2.454926527619721
-8.785743396279628
-6.547362246422234
9.776039034713499
3.741193439965116
-5.405680508313525
1.1460843103210914
-9.829605881494077
-2.536448121149869
1.546599757307014
3.9476649400512462
-9.929316544419418
-3.709710141859098
-8.156136920281025
-1.2577275315720025
5.187180677826761
2.8679838566224736
-11.808307040582612
6.5388009738476125
1.0924663678434903
1.2222314371685146
-13.962770856836297
-7.001141189849229
15.953910159266785
-8.92662911488317
12.739998689262315
-4.737614984395421
-11.192776579870662
-10.64501388352229
8.962974484154344
-7.496841152064414
-2.906016229786861
-8.483585622445322
-5.116929844020677
-18.501187123066433
-1.5420104504611847
9.542053638618883
-10.680715749890792
9.652482987271549
-9.363243192701402
-10.142668649122179
-16.14409053564281
11.287004617095308
12.826429525731024
-5.514633241231497
10.482130704584751
-7.181194713987551
-0.045779633965258415
-9.870378993020427
-0.015721527502828476
-6.126255943087478
8.948914919036568
9.506664438792427
-3.970379972747259
-20.727569120023276
2.283429117770217
17.814588907579516
-1.9607431552365098
-1.4795109111859464
-3.964555859294083
-19.42288611021504
-5.571418870116586
4.853392450751943
-9.462570087115186
-1.0253984593644874
-10.519414532393949
-5.024240179485317
-0.9073984865163691
-7.471017186898696
0.6646627000974157
13.638132879144514
5.439888870487913
-6.297047087309403
-2.9476025065284337
-2.0571031870705587
4.297016838628688
-2.95054325210281
-17.445689644895975
-11.666421579888398
0.3820291571685524
-11.373011017960323
-3.042720161699061
-11.029412618961775
3.25136398691636
0.054684532903348196
13.16057554245245
4.197992189464648
-6.644004910794008
6.228585741967317
-7.128359517013475
5.063513975185503
-13.266771388993073
4.80347734160967
-1.2380627217533542
6.743478481923484
-4.002942274430024
1.758300618051028
1.6958902526911928
3.2000287641390295
10.012797648155546
1.7389625998651386
-0.1992462334003092
3.122564535422822
-12.427324284541369
-14.36890835938845
-16.436035839666037
8.717958082550629
-11.381136181075778
10.680677197458209
-0.36893701178643185
4.2968076971569245
13.287574258042953
-9.942810095238235
-5.5373178485797245
-3.8381191279229365
-7.256724452558432
-10.886956943977596
-13.60213310271534
-4.417840586561856
2.489403831268217
-8.198981267681177
10.347475112301769
-8.216574050260899
-7.59334434302302
-0.7862961296206631
-10.21578592829298
-1.7153566042460335
-11.371704992421408
12.246153517299655
9.137812943225617
-4.738706359363772
-9.830366880543483
-1.0642371794771335
-8.890888214597409
7.427283337241859
2.686202905402099
-15.364184644449624
-5.281743656816734
0.5710441430900086
-19.00420778002949
2.702263627169859
12.55782101390808
0.7165530982323758
-10.957600011046566
-7.494098718431591
2.278747827399525
14.798749319456407
-2.0915563915186137
5.029856706527556
-0.2951140311051147
-3.067094121407498
-11.94997929030052
3.658950127766566
-8.408582288182565
-8.535982663193685
-13.451561270216695
18.64290827164128
-5.865853243787601
2.1145845545329833
4.356337224945868
9.85355343283052
-6.248268127472303
-13.588200487072886
-10.157994831338991
-3.742217310798779
-1.7932037405360541
-18.444894698794105
-11.00836077847987
-7.102385390416786
-2.53071404953431
11.69313808461343
11.219994200504036
-0.6906823675580759
-11.907050514511884
-2.8854454508784344
-7.274517516321173
1.2711471561308947
-9.122217770837516
-8.501157157072656
14.527542669401111
-2.5052524979225335
0.9748382755738058
7.151982121762952
0.6647077771210365
-6.733174280399584
-0.9383652789015086
3.6896843352071267
-13.039603546478727
-9.57390438467757
-7.081576652197178
-1.2074285404162024
-7.598722017852209
-8.704329543237463
0.3648757218309075
11.334850729059179
0.4833638239291926
-12.748962429920084
2.222804725490882
8.911124772089575
-11.940789360709799
8.037679683347625
-8.9722059321082
1.6987115602375504
0.594514755843413
-0.7719253136600113
1.322304372808552
-10.340707318386134
0.049890273396498735
-7.564644392085835
-2.253340871796022
-12.494369201797152
21.260003811872263
-5.200968003420331
1.785475853327179
-13.38054490817054
2.9076354357888063
0.5576450451310891
-7.526687129829565
-1.5341599446068783
-13.55429190072751
-9.041081091686237
3.9006479631367834
8.68204733386373
-13.43243155660884
-13.0677427788656
-0.762072109332427
-3.335468469280822
-19.440596719726834
7.807990352584624
-13.372496124632654
21.677914585814573
3.4274186726258344
5.150235382020937
-5.986693041683843
-7.565039772473898
-2.9684894909266046
-10.20870770720283
-1.8058423159614911
-8.91020940284486
-4.279784723377415
-11.154010185531376
2.3963539667995293
-2.7054530470935347
-14.558201875428555
0.1257310905601957
5.260054365596277
-4.142553824159143
-1.9431084695939747
7.671098200065437
-0.29834164830950743
10.721581966148655
-11.073539480086264
7.903047691992865
-5.935808363756269
-11.831732688479468
-9.825506290136703
-15.041073645825719
-7.613578196953007
-13.299874765471834
8.890354055218976
-8.774354799583651
-3.0516820178700366
9.189503345317002
10.307181330087149
-11.005358267941642
-11.20599062161852
11.935997447560807
12.06611886756156
-5.143997292214507
-11.617065567144026
13.15219860950695
12.348653593389054
-17.292795193669644
1.6491890596975725
-9.96707020778421
-4.516861091882658
6.025927106397389
-15.518190847092887
2.270263683386022
16.054092116004803
-7.255194221846596
-4.782927283260439
-6.1040551137569645
-12.267568569748931
-11.21076173281909
-11.977644506526968
1.1496087159531096
20.16267454678563
2.9209656657406087
-1.3513430048102306
-3.934320817199244
11.550123036724555
-19.06068399781176
3.168293163593675
-7.666373359223667
-12.695263505743224
-1.6521416612152977
1.9356838932752378
-9.902618756013666
-10.961997939207349
-0.7021498764243962
-17.292218104718575
-6.835327009833303
-5.493523115534327
-5.978367464506848
-13.656297010418806
-13.918240713330473
0.41187083888856907
-11.923180939997943
3.640221797714948
-11.009950097804765
11.249110521665491
9.36389300175239
0.4562425869008106
-0.5514507460102323
-8.153607918748216
-8.179555922543578
-5.244882817841118
10.218222293840821
14.740084706330771
1.9995883408461526
-8.940410185954319
-10.397813385330094
4.390275647386821
0.13384766070818363
1.7172912602698658
2.5947855486970997
15.404231195149727
-11.467518858520595
2.7403468096522996
5.113336558351219
-0.7289616044944021
-4.6928995938141105
-9.974756861851056
10.43237991265058
2.35306408964008
-0.6489232968045913
7.504117458151005
9.536532093416477
-9.376820958544945
0.9487119929500119
8.925200316892163
11.204422814436958
-7.621547975453137
-13.736088658498533
-11.02081622944417
-0.6317479947131627
2.3950144380243565
10.455875838619448
1.2913903565875156
-12.916995117791156
-4.041622853345452
-5.620114538351055
-11.136930785091861
8.254215632977148
-8.832688949249945
-4.981456688698713
7.5590151418320035
-10.400914612624872
7.3754500690006095
6.455445770616879
-8.041899048305286
-8.30053365784209
-13.927699182211988
5.727351479801462
-5.391226925513798
-4.958192088091797
10.256735447203686
-6.092873836794407
10.47649588298384
-13.236323537880727
-13.408394881941522
-2.8582808938859876
2.587044120427901
-5.078443414244386
-2.7659680817665064
1.4483824040107947
1.3835723728359879
-0.9102680499602993
-1.713423254634741
-10.565243670559648
2.2492017940747164
-12.732728332058482
-0.7206459455245522
-14.228662049809785
-11.323306615452111
-21.14240734695304
-8.327228843460801
5.300708840503673
0.5527645791550677
8.261597905410287
0.6518179057768533
-12.17700154706934
-10.315559192113845
-15.523586863004267
-1.5281573563346291
6.668316853525764
0.8221204348249309
-5.005531702291239
-4.37954708351634
12.24505553850012
15.117438215847246
3.714432393540136
8.332261680572223
-12.116159542200434
12.531296800286059
0.7374771705874064
22.191953403357015
5.130554437094489
2.9515038837308256
2.5200065660132123
6.029130026309864
-4.95177036856608
2.015398550769864
-8.140504642137856
-10.315579941912848
-11.658961585444066
-0.031203913293862143
-14.821674091049061
-10.277295268611374
8.465674907190591
-2.0115345209215048
-5.586571012893162
14.090696454902702
-17.32789838481933
-6.842682533281291
6.267557346945675
12.460469262897622
-6.775446149458998
-1.6340879871411775
-5.017630479629977
-12.058153969966776
5.214536408069666
-8.666180736119463
10.513669305595393
-0.20180493875675704
18.282838306943166
0.25319648004524264
9.05602235131247
-0.007410463583023988
-8.038285779063584
-14.808187119647627
-2.206427336657156
-0.6852413186237991
9.728200063967721
-3.800750848948521
1.453860135277084
1.923100317868985
6.740736210477431
-1.3460772281737385
-3.4552135817490948
-11.932315893032593
-8.098256306466894
4.017425453466573
-3.0375250494377686
10.268764849538115
-7.3606217501068105
-12.53080220022038
12.321262182360615
5.919923944303303
-23.210640326012353
4.805195641003697
-7.803619572118337
-2.5442764879267012
11.199824569605774
-9.302556554882106
10.132028215222995
8.94399482627188
11.912425156475775
1.0762546122357388
-9.587433004930332
-7.788829093192164
-3.7722821387033223
-14.143123600295722
-12.972978394070019
-4.767662058531484
4.30991024479796
6.952220287206302
0.2842506947097259
18.798988136143112
-4.245634246119358
-16.966786841107645
-7.039108042885146
-7.494866645625007
-11.265209614572985
-0.45264643852607145
19.20280603331561
2.920305349648001
-10.593584189897822
-4.351530145322461
-8.100043297228583
10.110251212065924
7.106088680915644
1.3222593696194747
-17.628370882237643
-8.316013832307501
-4.057268029064928
1.4788010358486867
-21.698164703739725
-20.208345246757567
-14.233262111955078
3.191808040448817
-6.517421243936687
-5.9955691266025894
4.3064496389326905
-4.025360139497113
-2.7977724503518764
-11.611641241762719
-10.624221717109869
-0.14543308203858507
-8.992031382627225
-5.734239715612374
-3.084979389200439
2.298355516325722
-15.645153699762927
-15.889434090066311
-12.405594477652334
-7.703367818535126
-2.70081414472942
-8.265782894734386
-7.095447991822312
11.253099601967692
2.8545792423923513
1.6126150608326755
8.398492103873583
-1.9906537132554871
6.757685303845355
-4.873765023438925
-23.526674988450512
-8.773476869874326
-3.915340498431728
2.586228134018531
-7.1114557737583395
-9.113724477848095
-16.29511990735701
-0.4627304015970639
-3.6811120621599036
4.117651952773381
-17.97631397378186
8.296285326388885
-9.787812500107057
-12.639397830427475
-9.984846272406026
-9.794662387498743
-9.98583442823189
1.1841934386864434
-3.2819244349579804
5.605986005414678
0.04033809693787291
1.4842236788036263
-1.0811589627319778
-9.03983629823587
-7.998238500413597
5.937388781826011
4.206181313598734
-7.39946245638208
-3.630651515579237
-4.652475625355745
10.872507363174833
-13.866534033869364
-15.82551032529794
-10.092338707639147
-1.7482064815610086
1.8816246686982743
1.544651778093936
6.725208914133644
-17.079218297410293
0.8374026951661152
12.168391216406931
4.769192718788435
10.884822698160882
-6.235364944695526
-2.364967587758739
1.809184879961753
3.7198276579838154
-6.303612286387578
-7.291030482434023
-4.406863074133221
-9.495418381851808
12.882419673585419
6.33529788761407
13.474522898148425
-1.6797023918878882
-0.5017321652207485
-1.0540212337530428
12.311108509630838
-17.160388974415554
11.719699070725603
7.704379502306385
-11.553264230730365
11.34465052870039
3.444215499512159
-9.711807502821484
-9.242123101013712
13.907511709035578
6.574607475934465
-10.020832853475554
-11.737773511504546
0.3408499476246694
4.656900387568843
-16.399898727535394
-3.5884617977636
4.228077907774755
-0.21075106326084606
-11.613406322482525
-5.146630923309228
-10.451311409156776
4.884479372264202
2.0294227610546813
-10.310109667176732
-11.231056792537103
-8.261743297658574
20.783622214161056
-12.876250994695846
12.744421922714098
-13.463686047489901
4.606778363079364
-0.018547368721821826
-13.705544594371407
-11.796283792339848
-6.275974870526608
-9.349565681634477
5.028716505605859
-8.86791389404546
2.831055806043511
-5.094034835542221
9.184595837913282
-7.985026657700474
-3.8486030250014003
-10.305672278084057
3.9970455083209604
2.7050054643993735
-1.58347894738243
16.669520223615912
-8.18297371184584
-7.448120176401725
3.803921004946392
-12.0749389532288
-15.165946744949448
3.923828384177381
-1.181117465259275
-3.036729660943041
-3.584708408633168
-6.9979706653436065
8.733784929940976
-2.491416089682312
1.9762367847424105
-12.560925897695979
2.4920596853503034
-4.956404285867362
-6.705240950847547
-4.550529487754251
-10.995036083897809
-6.184349029562915
-2.000386137064802
-4.76498078998766
3.5714796401427926
1.0766085255048008
-4.968764761674412
-17.697865358857793
0.19544477889647252
-9.49209444726559
-11.351893142845423
-3.191194017087692
-13.53909233539187
3.7097255141485133
-3.2285940674386104
-10.837807798474472
-7.62025339864122
3.975889499081742
-5.003293263237238
-2.9691514026933556
1.7581124780552913
-13.07021031162391
1.4387254601019077
-8.744529055133103
-16.49715550718726
-5.518053951412074
0.9716980933492303
-14.25344957697008
9.255843789757765
-8.369011547236676
-8.005381751589862
-15.372699344969618
-3.4108060300458685
-5.30159960941106
5.729273286476138
-11.219267523185092
-7.299943187481375
-7.9276857327251244
-23.79699243882098
-1.6571377359591
-1.680859730272627
-1.2521275673568035
1.7167103690257988
-3.7679756367162
0.16778562988427084
4.467890272038805
1.4905983062447679
-0.09766124981265191
3.134484958165347
2.244338756039726
-2.641309026392576
-3.025519123913033
-0.09292659797401163
4.154703361241605
-4.006562223969168
-3.1454554650332236
-4.216663326363317
3.611426864155488
1.606637585571674
2.1986075699833334
-1.1780645026361147
3.857745452263836
-4.998798370114519
0.4438919942230261
4.356818076879219
-4.1181056107439
-0.5294816061561344
5.687032425633552
-1.734773298316371
-0.8005581502353155
-2.666938073774397
-1.0542864001242935
0.9234899899036371
3.5457145040397893
-6.134095095754283
3.8895711845884136
4.840422077389294
0.8667667120138822
8.053004161878057
-1.0541574643562155
2.9770105480737667
-2.531036097872055
-1.588480916589212
-0.7144832789977227
1.1797294116037942
-0.17163642119662723
-5.7402395401198705
0.8334973473325586
-0.6569810600355986
4.76834036864055
0.2009362009009323
-0.3371834463520668
6.410906203816028
-2.853499741374726
0.6940516593971859
0.897979335177523
7.990094665570206
0.18527698872946247
0.2861815986728491
1.9848481613232198
-5.012227445248656
-1.8780828204874591
3.6725008468113414
0.7486079381455369
-1.3137717425250317
-7.695951918116176
-0.9780284937165599
-0.029468659982466443
0.9171831706403233
-2.7974082090339745
-2.3551117968049886
0.2119826504219189
0.022524152575854044
-2.2954438017609813
-0.49092382332525014
2.41355833885787
-0.042607019604292536
-2.7068653919148873
-0.5880461063649012
-0.23112095787671808
-2.9265588085359684
3.4283280991538776
-2.3302202445024096
-2.7991735079896776
-1.5597941055937365
-3.867856571951279
-4.494859854623412
-3.7921263585129648
3.276744032348968
0.27247786857692774
3.1922762251414247
-4.951655089448035
-1.1389097757075033
-2.7552551699608556
-7.2653542183546405
-1.9638619597480207
-1.0143743474949343
1.4249884211833463
-0.6533058217389721
2.2717819337218925
0.31298232097444384
-1.4138301866360468
-5.785240724448215
-0.9155253432704088
-5.486191130751881
-3.577296346629631
-4.436543120703174
-0.06754618265438103
-2.9120410132774306
-9.72064585372196
3.1343157979130933
2.616789516304
6.85554516554433
1.922060282313091
-1.7825300062187743
1.7812708064509688
3.797647937180144
-5.866976455591392
-0.9338456028913783
0.05531679105834989
-1.0203781740296092
-3.3550036468149105
-0.46202782571975104
1.6908918678718698
-1.424501360135546
2.574173041441101
3.840563982332321
4.131607784484051
-0.22063480664656002
-1.0688946844091034
2.591696078029432
2.0553429207855394
0.6162087052791595
-0.3712508844659868
-2.328198422509449
0.36273677684923156
-5.010923004680014
-2.889939063491545
-8.425163029611651
2.152874851873337
0.1641342557401224
-4.259306312357477
-1.9979624955201658
-4.146920364375064
0.21183884251975593
6.498566669666192
0.8325481592706514
-1.486696905114651
4.441903476392866
2.997971158996439
-1.7829452395848997
-3.3022526838912083
-0.404851427487601
-4.685854673738084
0.6318082460885089
0.7972115496120233
3.0712513228683958
1.3138356409219059
5.687976444377527
-3.1887261537073353
-0.3329240947706132
-1.4230402051624509
-4.243902706313235
-2.969012804426032
3.2198839310037606
-2.469947363280801
-1.5233524644126428
6.803791232012254
-0.38368419832691436
-2.610441548403882
-5.133356855371572
2.8752056747012196
-6.035215348585271
-3.0339958259533666
-3.1195622140337096
0.6266785288470658
-1.0273464420135334
3.2289305863655966
2.293748511956876
0.7137314023895958
2.3224997377449967
-1.1299700533607253
8.996415956027892
1.819189997369808
-1.7323682271783105
-2.154564453111488
-0.5083838485899621
-2.547171637631028
-3.7569442121148575
-0.5429054404947071
0.8662969871940026
-3.2522008402017506
-1.2199784200084514
-7.494610396950106
0.7362928942358012
-3.7656865436547062
-1.9780693190450551
-4.420872623367015
-5.119466254466365
-0.7179261550359337
-0.8582683570488426
1.2403122190576739
0.2023228052850208
-0.5801939588947136
-2.4144086983159525
-1.6989025415399448
0.7003780350555839
4.331935663420006
-1.3114442509981215
2.154994673538183
-1.2252223697406222
-0.7306773423815696
-3.3226948235844747
0.9745078261979826
1.7007770193566865
-0.3619778034682039
5.008171713120023
-1.0316079876002584
3.9652359168869253
0.014122141930699156
-4.142244498209386
-0.6681165820446677
-2.323865288091405
-0.29959065026248205
-0.9284180004764201
-0.49508616967692776
-0.14615774529081407
-2.674271042091549
0.3532676798960273
-1.0819074026251214
-2.2038132639173735
-0.1258470294675492
-4.24994442084733
4.416685955178524
-0.4015881950732076
9.279859523600345
1.0442205511961773
-1.3807971862749147
4.411583384169063
1.7933762510085325
3.755508917468959
-5.560224391146937
-1.1074599735446786
-0.8123944057120261
2.9413493997214757
0.6311468392058927
1.2486716653168992
3.1014746164303397
-1.0604949308820513
0.45824893085833424
-0.009942000770165415
-2.4309482058799
-0.2009398765392131
7.519070519978285
-1.3562139811746818
1.1816108995330963
3.0796876531232718
-2.114365317282438
1.8433324616229925
3.9549989044323155
-0.38635270121125814
-0.13074603391717504
-0.41774674272363005
1.8138335064722455
11.483924576155916
-1.9708291691505075
-1.3146562353680997
-2.168378379319557
-1.0584384220599874
6.395935497230883
-0.1889013339990421
-2.6229984647115256
0.3344527251753725
-2.9253804111069504
2.782836036448299
0.6915142422171681
-0.19156134536925787
-1.4607530273621094
0.7508463526521825
-1.639255315188413
-0.8858284774826087
4.441437484518674
-3.3508276611546712
2.029400545439917
-0.6305038377693075
-0.6251174735892286
-2.389747130447919
5.585796901001543
3.873612660088551
-2.6831453814458364
0.93690701806473
-2.445093740772177
1.4841994809775938
-1.482592082678547
-1.1635190014444918
-2.095120045784157
4.035581119514612
3.0081150494867956
3.4016379511206183
3.00070814796425
2.232811610045765
-3.0770947154651007
-0.23052627864791064
5.538626633258885
-2.706452389956708
-4.691771852980327
-1.6561838844115138
2.715799287014653
3.9795936287571
2.0482248674874235
-4.471147061219808
7.623999647896281
1.1243800411651392
3.4186596177088426
1.1798260075300955
-1.3936482135639623
2.5222424434104935
0.44870855471512366
6.712588395731757
0.42943918674937415
-6.127462157969278
0.3281354515462262
4.479588343349067
-12.067724464918154
-0.8292064256620033
-4.425619406553093
-4.4377579707967465
3.82906283681326
1.4981978867483596
0.5400706466218103
-3.238481067635895
-1.2751551642541572
-2.9180943665139707
-6.334316733356918
7.486392094879629
1.1172349452748647
-1.111555951712254
-0.6401021789247705
-1.831774026806302
1.47022864215727
-3.4519702243858865
4.729735299370925
1.3943770833416527
-3.5886988205571604
-3.3889797872270595
-2.0875123402571916
-0.5401899017610934
1.835894881640924
-0.11571834632036164
2.3643872861762842
-8.018235298419162
-4.281223048794377
-7.70155968953383
-3.354294524051701
6.866050325089308
-2.5111888523215766
1.1462122221904634
-4.0040433703646094
-2.8606545544367568
-2.339795565908404
-5.478992574373982
1.7240898223454069
-0.5290351671939787
4.33264732867368
-4.187814403729943
-5.262025046494744
-4.661216203457091
-1.3534944236096342
-5.6708929661163365
-0.304020812666424
-2.9085646811560566
6.20520498716336
-3.5171317280610395
-4.116326208385539
-6.172704911725963
3.0650581662275305
-2.708448915901894
3.0368845212264994
-8.590951926882076
-1.3583105358499077
-3.2441082589992325
-2.4368367013953596
-2.671610877158889
-2.5934413074318408
0.3834430686634895
1.0864485146701426
3.436017476429092
-7.115698621284275
-6.925949083711242
-0.8620326179920201
-5.08432383901118
4.781937797156864
1.7652999125982838
5.057318265692777
0.45575206605502305
5.51645219597946
-7.011882602048889
5.324384580033431
3.4936321227454594
1.9602920830135464
-1.3706179465196997
0.018510647076718855
-0.7146273749011838
-0.8679131772522434
0.4139635174091917
-2.0564264613988366
-2.1966438041087315
-0.2048631172984778
-2.9210898428327234
1.5382880094393443
0.17275412634553736
4.149546435344027
2.0229440920999253
1.245264996303611
1.453540231981825
-1.1384649219573741
0.029546331107199928
-2.8141309707146487
5.204247007252639
-3.4658138929480296
-2.497138245157906
0.5104655624543407
5.131725625944094
-2.580510592590787
0.73891496489094
-5.376372811471205
-0.06962117200172446
0.8781623791330254
3.2356122969299204
-5.883543957090221
-0.3389350539842768
-0.6277990658351232
-0.4958490668820227
-2.2308615969175665
-7.212905000146899
3.1568433096343402
0.2965018007843124
-2.581111917126698
-3.973121104192993
-1.9002911709962642
-0.019659203786286574
2.5276535196279224
5.746350030808085
-0.940294019573737
-2.5243719425510553
4.357789050103298
3.982030444284683
-5.7920119547220725
-2.4509548865613158
-0.624233964774236
-5.571536152069722
-0.4650577804598763
-2.045681998556316
-4.546961379659379
6.747242201861693
-3.711960261976125
-1.2219246196296383
-0.9368839859575983
-0.6638542359026229
3.1306832018861095
2.839147374078308
6.484669517499928
-1.9160040060024965
5.663587921479949
0.08477220647557275
1.1299471601582733
0.36850371554289335
-3.6973221309740634
-2.2252648269392292
-2.915911049001694
0.8029400136926303
-0.9997855527499552
-1.8396306099851865
-1.1486749456454899
-0.46542969100451964
0.5582912008970037
-2.8307215933111234
-2.635745151745303
1.5056268491407037
-0.0843844367156814
0.28246114702064473
-0.3798136621028669
-0.8279407115922808
5.562575365605867
-1.6635737209494952
-1.7423748859762582
-0.7361704056492623
-2.8935532794657934
-2.103409038879321
2.0015460332118082
1.071255205474266
-1.634730105126033
1.2125675205555295
2.6888413051319184
-1.6577114150307464
-0.7972473805990827
-1.5484266422713373
0.3837676824813897
-1.4492528973007974
-0.056491322082925614
-0.5521225753497043
-2.0768963498290742
5.539156401714254
-1.8773914088826191
0.19300250431943877
-0.9254347344476158
-2.8001560676330306
-0.18138634169522838
-2.2037355087122705
-5.043554308164551
0.2838027945249005
-3.6237599484769536
5.187981330316114
1.1851021390368848
-8.099436592536483
-2.020534180133101
-7.439598189348387
-4.924206624860316
2.4057253567175123
-4.834915859135476
-5.782313280298738
0.15605764734373456
2.573654604076121
0.3515315839959558
-4.902339622455521
0.5085477896165411
0.2138509311576571
2.7328514819163097
0.31104931474808867
1.8166727996411685
-0.06261298512783432
-3.4678933830703933
0.16957209831862968
1.2671580018690116
0.9456484249425117
2.3921227007690704
-4.886894687426062
0.3953326485213257
-0.6532649204707802
-1.5051065702383994
-0.18332731197155733
-3.174921947838333
-0.030589461420862992
2.0065104446883453
-0.49884055287704065
1.8888378044344118
-0.8794984244765953
1.286938234064119
-2.3240830539907344
-1.6738564064913561
-4.102925963036233
-1.2282041504023185
-5.023682618468263
-0.9637122465499757
0.7541774711089424
-4.392752303979384
-3.5323808492248943
-1.9562768056640885
3.094890583352099
-0.30052868782782566
-3.4015912002551603
-2.230929900705026
0.0006257923166844632
-1.1550300576055843
-2.5815602994680114
-0.7722375058794759
1.9112297858359066
2.6203060822813593
-7.823937802002493
-4.0483495787812425
-0.32682596781390266
0.8037879419942673
6.192306710122398
1.2794615612541158
0.7117974769183663
-3.950347064371853
-2.1270233565301275
-0.8652297914216068
-5.275487875525412
0.2163873626476539
-0.49219352146266665
-1.83878262279496
-4.189263664922553
1.2112910262309144
2.76486677915875
-1.9329778481251654
0.02683909940376038
-3.364881118429561
-1.4547171886720853
-0.5648704149985723
-0.5096713478799975
1.7769818209230799
0.09249006145043076
-0.17038535809825886
4.101176942064599
1.5526856416774075
-1.5572816188913616
1.920042010557596
2.153041134748771
0.025065348203066384
-0.6068318871543465
-1.632986582538406
0.9159591150024468
-0.3058445995654024
-2.018219913877243
-0.6324642577832931
1.164608153855514
-1.1235315842357947
0.5564163440475683
-0.5860650337541764
-1.7343093028041245
0.8256298371878538
-2.2531876022825523
-0.08771949808626286
-2.082069663496754
0.0067958699928255175
-1.5980909127221377
-1.3129054015119201
0.16028984456964354
-2.0989843007639015
-2.085849004106397
0.3754259747412995
0.7308286337783522
-0.9996736306420808
1.819934040814983
5.334168299472129
0.3155394816761872
-0.4135049131567449
-1.116349803947048
-0.170868543946775
-1.6933146200433915
-0.6818077621470444
-4.560594279631679
2.432463390618094
-1.4095209922581196
-2.6061504903220203
-2.6032335630213055
-1.0591104058213048
2.677617536020355
0.9014739526695076
5.549722501128466
0.6482671273924636
-1.6257365428826904
-0.7461318910165613
7.218623905252106
-1.156929190970429
-0.49477051163287394
-1.230496949414351
-1.540205656414457
-0.16744077924933828
-1.778024557164014
-0.29895074783651326
3.0645875171354144
5.0745507298799915
0.8287429282284351
0.9663514067958483
-2.2244230291005858
0.1883613636098137
2.9096395998715514
-2.615376771343306
-1.5458862636015063
-0.13906493555868957
-0.5546635214467442
-0.3470481779203394
6.340483074475548
0.2854214164950354
0.7085330457148209
-2.0792206480475257
-1.0660392542324983
-1.305364295167869
-0.600268199751425
-1.3194630851765792
4.490414943188132
-0.49875679627810193
7.521208402755173
-3.410956413900464
-0.9552337565714148
0.14178367123155197
-2.543298570066117
0.6451518059806617
-1.2782437286980621
-0.4405485567386062
-0.8799693682836316
-0.22572742084071923
0.27114058059426943
-0.25461841271065566
-1.4827430436868423
5.898460757630972
3.2009643491615276
-1.1024856797445053
1.1506005617124755
0.15049702293259307
0.6764425328793988
-2.153200676974176
2.385280353428912
-1.6118699390365765
-0.9499821772317033
-2.685513390830636
-1.2941213829171005
3.5407855088251092
-1.0282581716955363
-1.3897303791037603
3.2149176059126523
-5.196483357172437
-5.220638398485415
-0.7494536403549948
4.002681545591311
-4.683232176746186
0.8642381103157563
2.4251938205256707
-2.0321875589115788
-3.0623093169445643
-1.9488848753524897
-3.096114314882251
5.732428031754987
-4.262355354086013
1.979907549740829
4.861980624350755
-0.9334729431219554
0.2692948887399202
0.1357178150600283
-1.8610576374413914
-6.203608117847667
-1.1806292919502062
4.425427852610877
-1.4021012093514669
-3.9447019923328837
1.2308813796638811
-1.0773435968243659
-0.9697451937657852
4.84307887041688
-2.3345387170612857
-6.631042394740737
-3.1182753317747185
-5.642562555964628
-3.2985415852780426
-2.285642788032666
0.01720378918286641
-6.089257049795732
-2.4064164772171366
-1.0991658159774789
-0.3718750337644139
-0.9296724533069219
-0.6365766368349087
-0.3624067002738939
-5.500836169550512
-4.630485882613392
-1.9579286869686647
0.5058803838652733
-1.4466976950639923
-3.493279825750913
-1.023597614458047
-4.274713748636881
-2.576877728719803
-0.40679011349582667
-2.075620391227278
-4.217150066827621
1.9988236738732268
-1.2616082643098896
3.6103779087938563
0.4256212321338288
3.1764698991562645
-1.6683466552442863
2.3007240169507703
-5.539098740858416
-8.799066332900331
-0.6402315786965725
-5.699739218001763
-0.6492853346236054
-2.9895420639273036
-2.9370822676751507
-5.005062159354794
-3.427041397216703
5.90643108940299
1.1793086077997899
1.514702404398739
-2.597590794659496
1.7267128391152902
0.2745854860082933
-4.590642288235335
-3.7370359409032967
-0.5342655919528673
-0.9520333362164147
4.36799536124641
2.6537280961629843
-4.3893523795059295
0.27614728048544535
-5.2715977097959135
-0.19425749753559646
-3.9470003395347506
-2.383906304498138
-2.707612759419138
-4.421054882153977
-0.42461901073928443
4.37185638775258
3.9938071912608972
4.504316456855459
-2.068802291266249
-0.9290673001279081
6.355960824078657
4.399935914276336
-6.754877448444968
0.34345873012819667
1.9308925499578202
-0.7743378637150933
-3.7880611456390576
-1.8852970331735097
-0.6820106230684333
-1.1629323230074007
3.836686523183361
-4.683573004632593
-1.916624454929864
5.25072909238453
-9.233034642100003
0.4332486028074374
4.754629886474658
-1.8235530432121887
-0.9627293594143971
2.266833184253345
-2.439297657392376
-3.375478484315366
5.515774372502524
2.721088951099911
2.2207333658366966
1.7927963225785397
-0.31568840456960273
2.693584429480487
1.5456459680366355
1.4496269520066911
5.587078917083921
-0.9174575572639816
-2.70374256342919
-1.0852445066618719
-1.2044265984173832
-2.4949747784805387
-2.6695190022372977
-0.6833430874387548
2.5702923159979156
-4.553706177865233
5.425553709063947
-1.4632408738339844
-1.951693258231776
-5.907157848987851
-1.5534858075461713
-2.3002408581339906
2.108466370488666
1.8480578100281961
1.8762795515120718
-2.8415177474392714
-1.0916184408577394
-0.7823208989952875
-0.7607900661340358
-1.8212644441228403
-2.315904694754964
-2.8503875760092585
-2.9911138171548175
-3.2650235252911908
2.3285791817949044
-3.7871452092392133
4.937239678654723
2.6732533313476545
-4.329977852689463
-7.774638701343429
2.92609295635444
-4.127987859283596
-3.582683266408441
0.6677871885945196
0.48088311938208017
8.085676322690032
4.678475398132538
-1.6305094615885865
-0.2631378801706576
-4.242980544984849
1.0010632970059108
-1.5657176714152918
-1.147613011930462
-2.267876454786284
-3.678132681782302
-1.6018808225381025
-5.657403591671206
0.4955354692526579
-2.9108939770764914
-1.770391831572394
3.545365331266801
0.6688259178658823
-1.4514341092358678
2.493738856141513
-1.8342299319926814
-3.853280724877112
0.7155093045366214
-1.0729505356514852
-5.1474049567850315
-5.5434787155619
4.564483798532185
-0.6920951412921073
-0.005754780596922158
2.6484948326075193
-4.135756678285048
2.341971835067234
-2.7702657633186614
-1.4536366918227217
-0.8530004115698523
1.9315904357389295
-3.7960824703357856
-4.840601665963515
-0.09444001910645972
-3.769446894386347
-2.0277539916927907
-3.5226486471467653
-3.6685407127299725
-1.4783174486383854
-2.393449919289636
-0.659923329460136
-4.017285042800156
-0.704438615185787
-1.5556067401484865
-6.553447521726148
-0.7429601432458836
-1.7075336104270145
-0.31748895010069994
-2.7292687699951017
-0.6490740407665947
-1.74318002187355
0.8135544952192464
-0.5930861290986921
-0.7021589403737478
-1.5636571474357053
1.5080573925224696
0.8975393273082987
3.7080073925934878
0.13429293407713289
-1.2177329831156312
-1.515466276357408
-1.3060933069861504
2.5407990160556246
-0.13361121729137101
-1.4568588580672452
-0.471872472228994
-12.16851586513146
-1.8968244794227087
1.4813709078023196
-1.601527541063376
2.3792790385908855
-4.425203632729491
0.6571772073921274
0.31988734435777466
-3.267302963007114
-3.7099878742668544
-0.7057054964885504
-2.860634009189001
2.553049694039228
-2.458010463863615
2.748540159431546
5.374521333368637
-1.3202193210065436
0.3580084054437096
2.9842627814472893
0.19605449661106697
0.5191692354172995
0.20850400270198927
3.9023915174413273
0.9986069182496324
-2.918827814735159
2.700751935392897
-1.654733247214694
-1.2371536437935957
-2.433115908253227
-0.7954088978344838
-1.5969139073581902
3.2036722650394567
-2.6164685523181657
-1.45830700823546
4.960807360848755
0.8679837572612533
-0.4082840006205829
4.996297080626253
-0.6106107669217341
-0.8397777091861648
-2.2960446668378878
-0.15539111596320057
-3.792551443717725
-0.530397217211932
0.1438748749567659
-1.0316205897897404
-0.3204920872415553
-0.30703666691949283
-0.5763675531140776
5.6242026785770145
-0.7679020945466385
1.9365429450278504
4.822248129426373
-0.007886521985200637
-4.509633788578227
0.2655760546317543
4.695864919251146
4.735240620519708
0.5017130969320864
-6.2488942318963066
-1.6411692892490513
-3.215065628169125
-2.266442133343282
-1.6810140912598461
8.068428017638784
-4.507091044662799
-1.6714896444901626
-1.3506220625516578
3.2496393545316207
-6.00974477752936
-0.962071677346627
2.0414267204805343
5.622312751809025
4.578545332750967
0.5250753154580656
7.807313665618315
4.024766383791831
0.6250528041217379
-2.9689391490278547
-1.5351179203021557
6.593146426075147
-4.93164802489021
-0.32492518850453683
-0.9892527925555598
-2.724048553828415
2.718431714424865
-5.425585171947746
-1.8764594836842174
-0.3099805041923576
0.8242630629356094
-6.6207819393078715
-0.3007638039642817
2.2063345751658012
2.8301382876103087
-2.51392266388342
0.3628421208807568
1.9237250756059976
-0.9095612296784743
-0.0805641079628527
-1.4519457042029995
1.6121162186890967
-3.623535048888994
-4.582968898025112
4.5404218663231894
-2.113156847093619
2.0500255988186917
-2.668051289917602
4.657959142912013
4.950416038165483
-3.342869299401598
2.376244193131908
-0.7998929269908103
-3.4141900240757983
1.3108237932666567
-2.6582193783690524
-2.0290207898038557
-0.7402363363602164
3.0515605170267572
2.7809181571289674
-0.913314916155747
-0.21337471456392273
-4.002355690422364
0.3418105569465751
-2.1865792186827795
3.998491892282078
1.997507940281611
-5.032056996402808
-3.109102860706141
4.811844894230611
-2.46685992634145
-1.5437048517903251
-1.6261263471247105
-4.3180032671433235
0.6945723528562805
3.234141359626976
3.231749233299258
0.790860735014685
1.7228286189568875
-0.27783885655779367
-4.177666501462891
-2.2356222319144274
-2.619285790028971
-4.026411476826125
0.860520236844653
-2.5660783162532317
2.7289627406364945
-2.1865684392185196
1.978095899519432
-3.071766359183892
-2.5563785046243876
-0.45845480889882806
0.36803240214985117
4.299740781214672
4.444577494019112
0.16292450051888424
2.556342615305383
-4.665870676358843
-2.6036887070590087
1.2336010405758313
-1.120711650554148
-2.458916790404197
0.9567104261279578
0.7305095979499004
-0.5776390468550825
4.477775225877579
-0.7800425662665894
-2.558576766574531
0.22887889110694967
-2.5112612386263296
1.310605743411646
-0.04935050945040926
-1.0140014551778336
-1.5224160246915188
-2.550172020715966
-0.4844686622856782
1.942781039409888
0.18136207134840496
3.806730551366725
-2.609204909339547
1.2872575352710691
-0.7691907326295355
-1.7434017153186967
-2.396075246283994
0.3826720434777917
-0.4570000945040095
2.936965861266256
-3.25426506201661
-1.517284593505203
0.19815427318529083
0.4691673956812344
-3.31518096664251
-0.04848439583958861
2.161142245892122
-2.653662794395095
0.8486006041736612
-1.5390543732182724
-1.7800460490613226
-3.0728692443489245
-1.3311379094315863
2.8165077772019007
-7.461585338616817
1.871659372280063
1.2799448082324616
0.031576512389987606
1.560671918000669
-1.5970432694563284
0.31647281615462053
-1.8295082202478143
-0.15746536975118203
-1.542001719232927
-2.4692614832516324
0.5787684440692783
-1.5246044054679526
-0.2424649281646632
-1.2102704943842222
-4.106059579089621
-2.0827737673371747
-2.6503447286295057
2.882283013280975
-1.7445107488127614
-2.1665167021545866
-4.071868469048396
-2.965000964262496
-0.10347006987348278
0.00042500390514980984
-0.2114376719509676
-3.985433463818796
3.528081779578998
4.99251009100791
0.017651900210268693
2.3415841361761305
1.2200046748370093
-1.2961414828834719
1.9722145204613697
-3.0712956713592607
-0.20045637269762998
-0.675989476651535
-1.255301604388755
-2.5651073937167457
-1.5591965664850678
0.45544818445540663
-2.2420004730153873
-1.2624538461049366
0.647698772854729
1.7837803234119098
0.8334341891869634
-0.6613323864158281
0.4937615653564392
-2.590107496252104
3.780194515660412
-1.2330689232169467
-0.014210328270697646
-0.7148199468169939
1.192996928745756
2.060125413951603
5.675517491478829
-2.7052452726428147
-2.2286556532751467
-1.8638088665687365
3.3796264016326503
0.2876992036575528
-3.1136316163703754
-1.9864797148293254
3.6052902666205946
1.0812221281652399
1.145220576642214
-2.9887361307201425
-2.6720466615633165
1.909068468522319
2.5419478181920563
0.40947050176365873
-1.1840145382110259
0.0031673874092038
-6.805594698109843
0.20858587490942637
-2.4623131008211048
-0.01805994195620221
-0.6041333874724608
4.459844221826237
-2.8566649344008064
1.7545292830185153
0.7109271090570369
-7.2011294495413125
2.6728584241254745
3.8410866181812406
-4.441246290696528
0.7410295509002002
-1.307742339258078
-2.0340794147215844
3.144961961731566
-1.5013455229963055
4.255315295624249
-0.8955322701620009
-4.919446490038072
-4.972971875314889
-1.8719715164468063
-6.293927295260752
-1.2631533420840881
-2.3693177224628794
-3.3221247438767207
-4.207894629441473
-3.8603260296378386
-3.320158149131859
-5.331007445319146
-1.456922174148727
-5.129555939297869
-0.2197371840277209
-3.252567707083124
-3.3595449239704305
4.266196397403116
-0.5256968752602756
0.8400577908732291
-2.3071480063753937
0.6358421227161855
-2.701561050746886
0.15636386784219597
0.4510751708769449
0.740767843377555
-7.507604046533997
-3.707804928668789
-1.9615078127782073
2.736142677936466
-6.699765712419015
0.5463898393461204
4.498406260865339
0.26934534841886293
0.4267173747457567
-5.583999330543027
-4.165824979520258
-3.5011709441085297
-6.2977976824563315
0.8404345129998577
-0.6263184442776868
-2.5602846319830794
3.2624432284466787
2.107259641442439
0.3915342996939974
-1.1092466486945685
-1.4251570094668309
-1.411227975224024
2.141883572429841
1.1460908167753288
-1.470684570936359
-0.9737951454742173
-1.955101592433631
-2.885475988564556
-0.07779840360185611
1.7368856258173486
5.829235896142714
-4.544375591357612
1.0037295879842916
-0.8993355463690009
-3.9827367927733466
-1.862572642526742
-6.65152915135114
-1.0560736560207615
6.813479623535943
3.7137244005537466
1.9905082562360206
-2.3226861272994768
0.8204939492758907
1.0155898694871808
0.27615996473694465
1.584717178590003
-0.9612796039815799
-1.8630993141285521
0.6639169996278896
-0.5186766477908351
0.36695412664355026
-1.511244276595787
-1.201772933839876
-1.644103202655017
0.8972353487368282
3.609235667210811
0.2880662057932942
-3.6422061009309963
-0.002305645486542832
1.050181806952292
7.118387873307493
-3.0355238066860553
0.561482268659458
-1.9748918699707203
-0.114804416968088
-4.015563888243078
-1.5754185853602982
-3.1789690724540236
2.181396278985488
-1.9348103947449842
3.087223167318766
-2.2740028030341692
-0.9660592152333803
-0.4044336661060682
0.20148805804356307
2.8662802613162364
-1.3770202825707727
-3.1193712705141845
-2.852022434686844
-3.582482645383859
4.2191536621163905
3.3370350933378083
1.6858130057983247
-0.5535889532873558
-0.8967130924035404
-2.999878915242927
0.09098628470099553
-2.644213087937392
-2.1807261779737495
0.018440537234573437
-1.8195581075498544
2.361942075264489
1.5478045122204067
-4.543923389772014
-1.5322325954474325
-0.8555622719984018
-2.4359630143081556
-1.4405693898269414
2.9669289569791553
0.586537686711959
-2.2148358771843264
-3.0774537339801107
-3.8209250415070604
-2.4874660219324696
0.503773838885614
-2.784911569658911
-1.9843003643833115
-0.4707251642311366
1.9268257577772483
1.1985520966558436
4.5133969061053705
4.807506308339127
-4.007654288293316
-3.1006791349582623
-3.650920597650967
-2.3904949525892656
4.396924152975904
-2.8942140713135736
-1.641113302212422
-5.825585768527074
-1.0503043464977277
-1.2985018274783677
-3.258717269042618
-2.7518771955783774
0.17763802506373053
-0.2770296519157794
1.3694286977317658
1.7014610587641585
-2.0445215238178047
-6.143243185807724
-5.5526132766444825
-1.2348677905621441
-1.2218180541952053
-4.334934551449955
-0.887912688986219
-6.935323205355068
3.2647837196488356
-0.42017899335179737
1.8195228551692744
1.9116594263081386
3.5163444468202067
2.1148320595257513
-5.062617078221642
-0.6537968174513462
-3.360820763339533
-2.3429733350259103
1.466218390315588
3.6302271360889633
2.426149180884526
-0.6803514638323029
2.8173309685330414
-2.1553514097154562
-0.8353180275393479
2.6194844138054845
-9.420649766262708
-1.5632259787108589
-2.245122660483696
-3.9775210748801855
1.7348260219675478
-3.139955849136198
0.5869044405840027
-0.804603171870311
1.4719511769626135
-0.1650765219347349
-0.5180110532240536
-2.205988563144435
3.1741915449057023
0.8058027786724479
-2.0706317353561645
1.1226209098356994
-2.0640545926551277
5.078267755067766
0.9757364876126937
4.07272256613429
-2.021982875880954
1.9682608295100184
1.1933045048214252
9.204158841203217
-1.097727875323513
2.353615262630306
-3.348375999952086
-4.183226221855885
-6.410759685893295
0.2920363073352803
-1.5053278653560982
2.3888926049961445
2.796043772590985
-5.391553548658146
-1.5841544258025138
-5.376805824031655
0.40405866835890264
7.485049469103257
1.2874993013450862
-8.097881156518499
-0.05200241675178959
2.2047904994058363
-2.577305316541869
-8.82131168559037
-0.6823833053692866
-1.2862802740585926
-4.87038051550679
-2.3201649609431296
-1.6565957057488991
1.1750805837236864
2.818158030524297
2.230072697098649
5.185653409007107
-2.4884596242113886
5.860913568041062
2.304112205698495
-2.6490368376125186
4.169927213507714
3.2671396655580396
-3.9649722090586836
-1.2565762465728638
3.3079406598170356
0.050786581648367066
3.56181793026072
5.096679078345406
-9.195935230611253
-2.0364489179724696
-1.6125640940455874
-0.3567000087123006
-1.3709322841167106
-4.955593012288234
1.261537321795399
0.926056441479556
-1.081802444264726
-6.527408217411928
-1.2205600553313165
2.0240773525021485
0.38711114457051715
-2.0033740197925094
-1.612718515324897
2.5135333628044947
-8.081722270426722
1.1714870230052132
1.4262934956492486
-0.36301289840051687
2.617650125558175
-1.8948341027871902
0.8115849575834054
-0.957275853906677
3.6423853589968336
1.0917801296661107
0.8595960736284677
3.8359438907570316
-3.298967694209115
-3.015631750303121
-0.5835643535706492
0.17094138489799718
-1.5662203745397572
-1.6832142437993565
-1.0895592089282768
-3.2296931728054354
-1.2958477456031647
3.533039150513382
-1.0205934897587687
-5.13137153568727
-2.03069358047327
-1.9095012372579239
-4.924951336017244
-3.2519185008436122
3.9058853883010936
2.668177183999215
1.7309155113365142
-3.1972775924895163
-0.4011151566622436
-0.14588897782236301
5.971966294040371
0.21691693567466117
1.4120430007616942
0.7463717857956337
-6.56556189194073
7.817261171030707
-0.5020494023233533
-3.9708870589542458
-1.7113567574128175
-0.25370708929130187
-4.533007831487088
2.6870858052775284
1.897591769549201
10.236754703536551
3.8884929491779867
-0.5721584136072202
0.5052409638522688
0.8761339555918337
-2.726414151341588
0.529697450265378
3.3563825432370877
-0.7439800533548214
-0.40269408222863123
1.819740745487615
-0.39640200931475306
-2.481877558580829
-0.47893422416963366
0.37633394113930796
-2.8478089628761984
-1.6867964049107622
1.507233911670669
-3.7290150264140434
-5.375449382446959
-1.2545067462476913
-4.70663622651124
-0.7704939757101287
-3.662312270401741
-0.7528764330056815
2.768774214513495
0.4791527423538152
-1.1717528703438622
-7.6941875723667215
-3.8798903256908184
-2.230848251780308
-2.417014988646754
0.6264957024146478
-1.7389442899964955
-3.4082942400919873
1.4293570167545675
-4.62824282587654
-1.8130060531330097
-0.2648525307624599
-1.3255163126401575
-0.8607787204198601
-3.0504783529826778
-1.6393271421845212
-3.5545989771253907
1.0574769353057725
-4.109176570378858
-2.133975389501654
1.358943875615194
2.897900226631708
-0.6522661055418851
-1.423268903225451
-5.521549180857462
-8.469162632028684
-1.9142383857991074
5.122992374389865
-1.6999022893584614
3.1456348172142428
0.6948896626049196
-3.368082617156466
1.5646676997039268
0.2966210662143911
-3.217161194786739
-5.005348853646101
-1.0991096839679488
7.450285464436766
8.845585392750365
-4.117365021924709
2.55638232865298
-9.313914530318563
-1.9990370104280624
-2.41723464179515
-2.4928295286013675
-1.579677992189704
-0.47488553608140427
-1.6296526639215305
5.202247083004438
-10.230783010059943
-5.218596489732107
-8.745579087158317
1.184644972963864
1.939702670600435
1.1342694462890888
-6.357674374466062
-0.9252351765315506
4.7032014724442455
1.4899585730738252
-9.156520328943948
-7.271371429641838
-4.012595128204904
2.4646800135457356
4.393841802361353
-1.6724638886291991
-1.6973549291328083
-6.48779385539814
5.550489249609334
-8.627079403631457
1.1520870949056532
-2.0862061686831157
0.28712190078036254
-0.4720003475615086
1.9011115145599882
-1.8225189386119858
2.1694765249372856
-1.7850391268903545
-7.305187571976441
-3.0174086780174263
-0.9399693760858718
3.3411682051992493
-2.4583924848920296
-0.7394160446041175
0.9855266024790263
1.9426720456429456
4.242869521452794
0.5467036336456678
0.21040869572467186
-1.6768725432500744
-0.004312375219605937
3.736646315477754
-3.868352662789368
-3.776389183952556
-2.502333120157439
1.864808369189809
3.446319985858334
0.5662243414608843
1.954381530307814
6.6957306714791045
-7.479466979246772
-0.2576912496091314
-1.517902016880779
-0.9972164456604921
-6.752842890132728
-3.9979018204248393
-1.295336496686739
6.3995800441818895
-4.517519026976536
-3.1843518150810994
-3.883012990814117
-4.561224095731636
-2.707387807630298
1.1392541461140608
-1.5628474670282912
-1.5932278519673504
4.818006399727255
6.099083067878084
3.8257647240087045
-2.7284939026478785
-0.32720422826641027
-0.5369502985604999
0.059646575495079714
1.9550831797550512
8.229856967889246
1.223625513395371
4.149222154043802
5.04882827967007
1.1822759722089402
-7.551563183227328
-3.964351180461774
-2.920048712301594
-1.62133824275995
-2.690773053251419
-5.131101414676612
-5.391354477850606
-2.485300616394098
0.741568567893263
3.9499450900061457
2.5383224874007504
-3.4953141372857703
-2.008842112810254
1.7501748142140359
1.0493547739680007
0.46324385378705113
-2.289033158510263
-3.462047883262989
-4.427226388773568
-2.5427000726295224
-1.4436602139136014
7.847872600218635
-2.665831059799015
2.361555959774024
-2.079582022759342
2.7261979041838287
-3.261504981920163
1.5621608695106308
-1.0627343160486262
0.9417914943593741
1.8657757983045493
2.493879664840995
-3.3178896745753614
-0.3659198593340258
-2.1037259163252644
0.5517499942740577
-2.481750006284024
-1.7405239907068975
-2.925953625144362
1.2667878913350663
-5.560223550811997
-1.7241288271713116
7.849982712851091
-4.151562807881852
-0.5450349529530729
-0.5245551371959333
0.0036749779279242395
-1.6017590473540222
-1.324966075532411
3.56196973394407
-0.2463595018246831
0.927446042193735
10.239027805017223
-6.28634641070701
6.361958308385638
-3.2167201298382335
-4.788924649037764
0.7536354442317583
-1.7682315912300859
-1.1561736891338081
4.230525722239854
2.0322200939582493
-0.5057583675083899
-0.4910410802893705
-2.1715889542351574
-2.0361990878408074
1.5211375014510182
-1.2208443754820295
-0.6312443823079629
-0.9169075633473457
2.9386755153375224
2.8516432172539856
0.14773134138099756
-1.9461922308102
4.711943751374672
1.954298350688412
1.5267123534566431
-0.5949503781778941
0.5210632485700283
2.438904886596693
5.031453922369075
-3.135780877743788
1.9694637185704706
1.2940924713129942
6.158255694431062
-1.5536142169989806
1.151438251934292
-1.9579580460358819
-0.5436693239040871
-1.3317336164167373
1.5117584997804983
0.6669979543182805
4.559011433247469
-0.4642255448024399
-3.3202129411268198
-0.32439725052668705
6.178647575356986
-6.2485161821242805
-2.2991515896238286
1.9710398455410125
3.1220025375356526
2.1143498693998954
1.5946098307015026
3.3009826829372666
-6.197485719878163
-1.7996711280457112
-3.2903504258314107
-2.0343017514824413
-0.2539954148222506
-0.9439740928354157
-3.018991536334381
3.625590492470649
2.832381479789694
-2.208505981851016
-3.1404357034215495
2.324120804145175
3.114986480737378
-5.186347869328854
0.6094789374505525
4.175520880164871
-3.101642564104667
-1.455858589283525
-1.6755854036088975
-2.0098574823295494
0.008425272576171233
2.979991750275634
-3.138467070555208
-4.143685502883439
-3.680359286930407
2.825036751411278
-0.1380255803659351
0.8541682713565718
-0.884128759282375
-1.1867152744845082
3.741337914188328
-1.37798638525469
1.6455925343828726
-1.9461228057764959
-0.12499293446660877
8.94542422109985
0.04017856388648333
-3.180530277524284
11.4957971453564
-1.129734594232895
-0.9528271116193742
5.52097956970013
-4.374599984155586
1.5760859039755046
2.3471055967874768
4.217388447390847
-1.7969381946019072
1.3590230263791125
1.188955534792147
-0.03723801987402872
-2.7956991171654253
0.9391077419008497
-0.4960912564195495
-0.9247607934701948
-1.641598570277628
-0.4166395849650722
-3.392704759210078
6.77482454452598
-1.025118500943278
8.011536249002685
-0.052865676110654125
1.3384222882209575
-2.269965429749315
-3.3334609518426705
-2.750479596415938
-4.380215982121468
-0.11476580802173068
5.67908835981264
2.9557352546308024
-0.8056337283391394
-4.107709274054334
-1.939413380861199
-2.2874029569299887
-0.1519148492387229
2.4999583477208596
1.9585655888909403
-2.4717463521728393
3.1924248062383054
-3.3572264946436285
-2.117777124003028
1.6373301877874507
3.0817424236903532
-0.24653658755503177
-3.5177674636477003
1.3488027347962377
-1.4713381617972527
-1.549957719604832
0.08503295525071679
-4.846724698295279
2.9742924846096894
2.5187755671995027
7.594689076527236
-2.5977469119980148
2.961217025341862
-2.8872889781788302
-0.6962399144749265
-3.3467389558197995
5.528916730864744
-3.5108859394744627
1.273944834130385
-0.743698550698549
-0.5891933267199893
-4.436615573353
2.1946510132423813
1.7803026011347614
0.40475502962931403
-6.836975853490709
-5.188776813467836
-0.19193559441363658
0.7338784571813961
-4.586105639784834
-1.0444529697328084
-5.16318986984293
3.5093908908709457
0.0025236720217383965
1.5749360838256368
-5.096486285388444
2.5973577253029294
2.334949992311369
-7.460690263269388
-2.7412937702674594
3.4423146571982484
-0.8904177288926115
5.7923817976857475
-2.5342845338777718
1.5388485902444993
5.636812606813522
-1.788899350826422
0.9682184222610998
-3.4715559270141214
1.5140558962621151
-0.4992023603547085
-5.601181481650993
-0.02078750169611736
-4.646096250382988
3.7908899776946554
4.430751130230219
-2.713130750440316
0.10823991035109053
4.268457819121733
-3.967316672866557
2.8873356084616053
1.8791887049635814
-1.4733142312969276
1.208226995395865
-0.31498808422210545
0.10545063075932215
3.7637217621809644
2.427785810041461
-6.107159211481138
2.1251547962553077
-2.326406466250363
0.8114434854893428
-2.3085681534275
1.950097646524207
-1.8422745404284868
-8.956542403058622
0.44089271989421025
-3.240104168835241
-1.8575500663519362
-1.4093502265567814
-0.37600395133837866
2.1066598408688297
8.68629224149366
-1.0556635789547877
-0.8086456775835698
4.014692217132242
-5.8233583967820195
-0.8953007933525569
0.36541028409250503
0.6929987000790898
-7.789959038139636
-1.9236355465540877
-2.4562310026191296
-3.2831799994363715
-2.7423188806649965
5.283274395111344
-2.6924799080162507
-0.6037647234220658
-2.563659930423759
-5.358750950886793
0.023790370309963622
2.132191685507777
0.2639476327492568
5.269825275726313
1.1482100938110864
2.1677139716379545
-1.0264812640267695
0.5843788995759994
-0.5840056935823826
4.268001640695915
-5.3997556811713325
-3.429451760990861
-5.943511181831767
-3.1087977607222093
3.2431276556146393
0.6352061083656572
3.2654993390603217
-1.5391058387690284
0.7906769837859198
2.0493919136213328
1.8504763071745762
1.2324395528569787
0.9984348869635746
-7.460411600288859
1.493023630802579
-0.1475651375039862
-0.5271955525320533
-2.8403594205247993
-0.49124296895687375
-0.05596954978231906
2.464810623522787
0.23949928205460577
-6.096872049595076
1.3860956982670118
-5.654708401511845
0.29849481415906215
1.0406771489031488
-3.12610407939639
-3.849067094857188
-5.365832387664838
-0.29541381843452236
-4.235083409052678
2.342964748241131
-4.925492756883218
5.0329707509664345
-4.338890848782008
3.4006131827114356
3.363750660417942
-2.795399887527756
0.12002435368768731
-1.3656490377722612
5.989730099793422
-5.374204599324045
-7.596232925423188
-2.5110672361295525
-0.14477833769876963
-0.5607349944390319
-4.111417475536943
-1.8321962548128523
0.48360903028043556
4.744329646306821
-1.8148677831942388
1.3540514863185908
-0.8599118436197771
-3.498069069986774
-0.43429856886147067
1.998106288413799
-1.3831702127685621
-6.134474770673219
0.6442205508219627
-5.969766506750854
5.965390728153577
1.9885598006099343
-1.3832603047277081
-7.868310309758896
0.6926575309243557
3.5948931420326296
-0.20140880122654523
-4.273258995688981
-3.281178493735263
0.5931542807455282
-5.544900640224315
4.105341130152191
4.593414880964924
-6.756010697994865
3.036460872260032
-2.5342724342442016
-6.446974134437584
-8.006331962186078
-6.938028790002688
-0.5931320296773057
-0.30017644023541096
2.1303009799175276
-3.0585167862782385
-4.955878779844126
-2.959882555518568
2.578946176887996
-7.878208239236212
1.811121064488313
-3.6913459963486868
-6.784611364594904
-0.3353644298605949
-0.16868562031521084
-4.433817166780278
-10.717080476955408
-1.0777809641915634
-1.3690228224944647
-0.3440590414068611
3.747142104264042
0.338097134608316
0.045990265447799245
1.674302356174628
-9.563205478489948
-3.6640256746145075
-1.2092940882667917
-6.8077455086384155
-7.843397090785217
-6.356364982521213
-0.7901267506752135
-0.5502501619308137
-1.2622207334735376
-3.3775431431904583
-5.7404286020525035
-4.413396899627563
1.1918550667614007
-0.3418874476350184
-4.660564768493336
0.14710374339160112
-5.44951332551917
1.8496838409774978
5.468365005017317
0.7534747896096783
0.3724794166839469
0.031298210905647
-3.9563211950193486
0.21882437347885128
2.026569947495524
-2.8233982768911075
2.1992638110438527
-2.8280675677828238
-0.004478044523359777
-1.0878000127181453
-1.3591624985351036
1.7278395943859377
5.653732366044087
-3.914980415475001
5.468477699951532
-2.48744293604729
-4.680399229947852
3.595563877410477
-5.526770020548611
-3.38715803897734
-0.5208804454787771
-4.130269898614897
-1.4137548261639303
-4.596373430335164
-0.8450121645357441
-2.39473420624705
-0.7429764807442201
-3.6146369536591005
-4.26991707520794
-4.085607453799357
-2.154777957576511
-0.8086530827953188
-1.965345119829987
-0.31139956417076575
-5.269654260415454
1.5067937931330588
1.483143881706294
1.7801029564564823
-4.598845208878702
2.9652297035634234
-3.5219897416198065
-3.479553065375954
-2.737643316327332
-5.614071938015129
-1.1856550360022218
-1.4780155064092875
4.956874299576039
-0.9761203352092167
-3.798415960573931
-0.8805730613991816
-0.44377983032701157
3.980096130729515
-1.29809080428853
-4.69292536957281
-4.838893030896536
0.6963692188393459
-2.874680373337888
-3.9560144470096783
-0.782509654419291
3.310005264685144
-4.1401560829714095
-7.251477058115071
-4.820019415613693
-2.377728190448267
-5.412612383208025
-3.8486373140611336
1.3392667070697324
0.6927789188074155
1.7513422826428953
-2.949749107837933
-3.115630155387762
-0.7412445390191055
-2.3257575920346754
-1.105013470383901
-0.7164377198167473
0.8755790907415111
-0.34586459672783554
-0.2920917440594527
-3.6786956217646223
-3.698761083877866
-7.430342651464863
-2.0904570955157595
0.5657766576420274
4.8429409381217035
-2.2409866145378134
-1.6316458449245996
-2.2763149712285555
-4.881874318535287
0.03672692609402097
0.5077415997630349
-0.015161629631947698
2.0885518745207583
-3.7923817554594117
1.838734555767499
-0.16505006141411793
-2.0363768086103353
-0.4971985432611393
-0.5423756351108158
1.3824992849994773
-2.8587470479057817
-0.841692119744911
4.39410026411239
-0.5066078767925585
5.3392309303628975
-2.3129089892070893
-4.0171125749267915
-1.001940720257558
3.29219152625876
2.128464911731556
-2.4793891868984237
-0.9311652043538673
-2.2027924466042905
1.8724782403328195
-2.354887954116642
1.769838499693995
-3.0941534629364953
0.9484615086936355
5.854707185852918
-0.8150201802361403
0.8303836275568308
3.58207586011524
-2.912524668178117
2.9303147901031275
-4.30054605729661
-0.4437733456925554
1.886818586593206
6.368465990798491
-1.1514275567521897
-2.2961540780462752
-0.35977063736187215
1.7619362977916517
1.5489524795172793
4.201600408288414
2.3808606902764002
2.793866385717919
0.3356041545057153
-2.7422627160790296
0.7971612538047823
4.252141091816261
-3.5044068700436557
3.142900899187054
1.0106593581248693
3.3792573644676094
-2.2540367520906046
3.302159286589506
-4.126348078377025
2.4719460006176197
0.3410919533883996
1.1110633902318061
3.3019352534447473
-5.336607351836235
-1.3694663273900247
0.33340576418531254
1.046300564687897
-0.338954339036197
0.8599615334557387
3.4376051366850184
-4.66792163590242
-0.6106292878212985
-1.799512277674584
0.019207685227713562
0.2301819817770755
1.8987612514484757
-1.1337461272371092
0.5484824524929575
-6.292450075156321
-1.915694583066162
0.15093244089188937
-1.329682225859133
1.2309064113504968
-4.084641239793497
-3.89085634464119
-1.6610362284141333
1.8703136580186022
-3.1288342253801478
-2.107993566908695
0.3277436986968053
-2.89112843482094
5.700919998520939
1.9279556191404126
1.4894438761333255
-3.1520141218053586
-0.14836643374308464
-0.38837088002023423
-0.7558393320722686
0.2237088278213895
0.39140826586340816
6.8333606116463965
-1.343379392294547
0.42394182352678084
-1.114614725135611
-1.049939454882155
4.307925235015644
1.2573286093010576
-2.8411586886607765
-1.469708228456716
-1.7586922118779882
-2.5890958435779736
3.2124725022416127
-0.6779596890470435
-2.2665385545909
-0.5328293672994724
2.7388161700701117
2.120644411835312
-1.2967482506404504
-1.1657876548297064
-0.8561146314678811
-0.34775379780537125
2.7562617269361653
-2.2871214775385083
-1.2704411217733955
2.412828076252068
3.7313354344426966
-1.8137497242846952
7.988661636845088
1.4942860192354601
-1.219882309761545
0.15704360668866307
0.007964345746767834
-1.556713339436794
-1.0511506253406697
-0.7330723407613806
-1.7769191620613527
-4.571644661879231
-1.7781403299517071
3.634376461818443
2.2982015620716187
1.6801187519598262
-15.000289402650806
-5.056666313324262
1.968287713709132
-2.5802856095868907
-2.9222230193795604
0.05359130975691274
-0.7080155747680753
0.9301437974715251
0.03837394019008846
0.957451875792253
-2.7159533419784414
-1.2466354317750818
-0.1011643717222635
0.568198546943694
0.8295166567322364
-1.7664306648986152
0.7897623237538539
-2.084264810775578
1.3642976378748257
0.3583197809011117
-0.8516929702406378
1.577770408568387
-2.974440305830606
-4.1886496176700065
-1.3337277914329615
1.8067489376762862
-1.6107915173823306
0.2255748717893152
-0.3179724749105493
1.7764186430339626
0.9899238276711534
-1.5280742623174326
-1.290945465607269
-2.0466850731446247
-0.4640998740076721
-1.58144900105852
0.1554735491089311
-2.5476768978465447
-0.06335808618634702
0.02826498551637766
-1.0946556476218807
-2.1737553821562954
0.7244592343369363
-2.0174472598314828
1.7989388595992624
3.138488104468242
2.0621170041529964
-2.646251776666731
-2.1967068828061516
-2.2411869201853944
-4.033136053487666
-1.6751756943826372
-0.39350981761343634
1.2557924747207103
-1.046645710433758
0.0516613311761809
-0.5445451559361875
6.309055317958095
-1.794962833452138
-3.24510588448953
2.426872194699416
1.5259834096265994
1.283897312222203
-0.8956832948560576
-2.9634222614925814
1.5175410227157278
1.683759560382084
-1.6692664976710956
-2.748474649443602
7.0300920295718985
4.23214087909811
0.9834656769021171
-4.658230881988947
-1.9055914934135498
1.9168168297208485
1.9240365270404716
-1.6542495731739957
-1.2717878823254931
-3.3790278409152217
-2.4285808397961866
-0.613683152527306
-4.46570498387983
-2.6897917494104804
-0.458079308920933
1.7400206088812762
3.5066431756685086
-2.028213759028251
-0.4305457766056302
-0.5137536795081228
2.6219110753032218
-3.2954774871934047
-0.6630198025850866
-0.3725994258065296
3.872616306938928
-0.2176499572292164
-0.9947676809395457
1.7497156278968367
-1.5713354863103757
-4.448399615957491
1.4566366140056268
2.651455398860462
8.550160600013223
1.2039282949056553
0.39081995388120183
0.3625526715869782
-3.126279452919428
-1.7049078617029647
-3.652364660743382
-3.9788074838428225
4.321075255524859
-3.5630053446309455
-1.6873108393793317
-2.423951255354782
1.4863964060335235
0.5252692134352631
-2.2695570956964914
4.964198859020745
-2.8784116318924835
0.7423550686234086
-2.027557161424306
-1.006417706387936
6.810522919427322
-0.46380713058977063
-1.0671999546140944
0.5777017247650668
2.0395492705940277
4.077341138557653
1.2851467992908843
0.305499262515012
0.07777778181110259
-0.4193547018929218
-0.9302509641087182
-0.15110466612805845
-5.587936613224022
-1.9825646084252524
-4.764307388131769
1.0288457599485867
-4.911343698985526
-1.4991031288099237
-0.19357450522581232
-2.5644650345886837
-0.20214451306122033
2.1646316372315537
0.21888581737364451
-2.4036858843141027
6.371864608914753
7.757065109523528
-2.789274474818681
-0.3739566653678164
-0.34897835188830584
-3.1782911774025666
0.16614235328242927
-0.5301374363967725
-2.70107961796793
-4.362289296880096
4.747444300900769
-3.5137282389048554
0.7095689297241878
-2.3180853659166925
-2.9906903212721727
-3.8452888827052583
-4.506621255098263
-0.3982909352868635
0.4900158524900716
1.9839165384357929
-3.7961040736313216
-3.8613644932431006
-1.1556864359441756
0.19430873465903178
-2.284536820898079
7.254263605407272
0.47550011539254966
-1.5532821308827685
-0.4182530815865694
-2.422196221189376
-4.737916558508337
-4.455168640051028
3.0953414191823416
0.8863014099927596
0.4437268128471617
-2.4628609661618888
3.9589880564462883
-5.036139681088981
-1.3326641134396453
-2.415920299789267
0.6646312461386065
0.306649994302076
0.19608299202204757
-5.350062460137095
-0.021921328741390522
0.2557046757276797
-2.0588417990554104
5.345081530570803
-0.8240976606513452
-1.3341115003648636
-3.8904346961815754
-0.6438571972800334
0.9999283036448574
0.6499142135108054
-0.28709971692843483
3.0710623131527743
-3.498702386721207
-3.529431321899743
0.3405354617798265
-2.4715917568485177
-4.124956806636487
-1.0104199647635415
-1.6697812466764022
0.032565749383616165
-2.6916585656054672
-1.6607941684315197
-0.8666025275691265
0.19370772829727778
-0.08240810051604118
-2.4090977375933447
-2.2311024863663853
-0.11941662332994238
-0.4772754882474621
-3.6237283726983427
0.6288990355094284
-0.14115373609307882
-0.3218816163453322
-3.0826429618272915
-1.3500978590808315
1.2343175210089505
3.508086957382291
-4.912572583701628
-3.5094135869685172
-2.6474453829452584
-2.2254560711736255
-0.5565756851367195
-0.608997131755933
0.8598649913828609
-1.4267439740292314
-0.13446653201706016
-0.5413180658936418
-0.6947396176724516
-0.9204080870590213
-0.48406836146314663
0.07784009173560463
1.2181663452456843
-3.445390492790277
-1.410096382472013
0.3782671641901191
-5.7489779913332795
-5.054036696048842
3.8825010952983625
-0.7616346919539205
-3.1810196162550843
-6.2755450514201385
-0.3554618463012907
-3.0037643090936514
-1.0161214909949738
2.0175169046467967
1.4917379129867374
1.1740398246090442
2.541215760108347
4.007542301543687
-0.9854665611741248
-0.9638664475628466
-2.150745702497954
-0.9961977352537621
3.5803309676611605
-2.975878481108042
-2.9239271820697263
-8.444507427139781
-1.937078155688679
0.5200022942053186
-0.049983957163155186
1.166257456728672
-5.231474861324925
1.1913137420373785
2.5607399796359522
4.812529022771277
-1.1701551793346763
-3.261542941131707
-0.027150376094765526
4.914161121536939
-1.353597537253398
-1.0060337713480305
5.760135319283779
-7.811073619159284
2.7511628676821416
1.3979887137221723
-2.8055148656190294
-6.994136983980831
-1.2996356420610229
-5.67087536260063
-2.0751066970103653
-2.942650035218399
2.8760074811498955
-1.908084078552876
-2.879820276531484
2.8468543572147165
-2.5721457939970835
-0.6979957595220587
-3.0666337866939655
-1.3932496352974812
4.174818120003239
-2.368540914319957
-2.3814208714750382
2.670297361478308
2.393849442137094
-6.483859728511417
3.194211703996701
-2.2706533717866177
-0.9388822283932549
0.07063068743242663
2.1722142946497667
4.760201593835809
3.8570423893738006
-1.2044130494970442
-4.725459802650486
-3.9829474317292917
-3.542928773030874
0.005888585504535004
-2.9674149621047996
-1.9003093335426544
2.8055955902446414
7.220789979647061
-5.189798764442359
4.142237914609451
6.079363793379124
-1.2161076148498327
1.8764310402806195
-0.5207539760304112
-7.084801651343519
1.819084923466007
2.5271800381249547
5.475862676064324
3.8244971631766878
1.5035845458110522
-0.009558169757611727
1.5385753146188426
-3.0086899389012363
-0.5713403520679664
2.0880500232141275
3.370785091804484
0.9410806944921879
-6.3440661232932
-2.6296315753079904
2.6250136158469477
-1.7202875731606635
2.3702018897654598
-2.502619197040997
-2.689044635575685
0.7298361190379459
0.2708458702300776
-1.9454161539829224
4.076644551752033
1.0805248359599882
-2.4627447023433495
-5.435145943196492
2.227146327616277
2.248223641924687
-0.5347154323742104
-0.15822192037147106
-1.5756011111307915
-0.3883753593780162
-3.1518993190510676
-4.454548344023396
-10.083140409574337
-3.9754917682281943
-3.565840603669353
2.152430499921758
-4.469848985760618
-4.86866512767048
0.12836436767199677
-3.3366800106648564
-1.3813718890776907
1.218508437145905
-1.4273729145374734
3.4134585928677708
-6.347071273513003
0.45407131512110277
5.192165431806957
-1.9485180588947197
-7.00082361822048
-8.836302905792019
-2.2867593555060166
0.47033718025003163
1.4861522103727725
6.36876523588416
1.8455628204189387
5.6576375895954
-3.546239453219724
3.0300103978732573
-1.558027856623885
-1.6853184151330023
-1.645489507188265
-5.638541381170197
1.3127234036509947
-6.169150702263175
1.3850618626390454
-1.9249013142198172
-4.2903052997202895
-0.30232237051619604
-2.600959168294035
1.592085823882532
-9.093833791316008
-4.5457195259944445
-2.5482628115953356
-1.2322916269584157
-0.24540579123320871
0.13916679980642438
0.5762723557935343
-1.5661188964336228
-0.10149243943328834
0.27556961589830675
4.42502860541725
-5.522499555865343
-1.409465398239684
-1.5675310159843232
-5.490416406953234
1.0129665911361843
-1.3116329590607383
3.365257411255907
-4.253985298957145
1.2443611981970688
1.5639608820454376
-1.7344685513531004
-6.392073226232243
-3.06844885339481
-3.197236450506569
-0.3518230853115464
3.1519723666086805
-3.344397388691179
-1.4782395324125093
-1.6284854710419405
-2.2174354981674615
-4.970242199175113
-5.35009654413732
-3.3271338604919136
-2.829085026460682
-1.1347845493858542
-4.231052071099188
-0.06470205498761734
-1.8536650065384284
-7.355260493874414
-5.065285860246926
1.5717677970259658
-1.8781403222625315
-5.122578086341873
-3.3124754092910402
-3.2744821742575856
-0.4125250539020076
-1.1341253618792617
8.074970502311098
1.487036815376867
-5.389236296186024
-5.660231996043413
-11.8262106136536
-5.003419719089328
-1.9950828772959681
0.15363321980635652
-5.382556202896574
-2.5204387277877327
1.6415705340792324
-3.666536050898921
-0.703251386567955
-0.7096696563587295
-3.1244131407983775
-1.0661043820572855
1.9692886901988118
0.7470343019700509
-9.646320976935284
2.2191184713898404
-1.122827121056587
-0.858178133940518
-3.211090125104998
-2.4142081281958143
-2.2945833975492063
2.023529574040423
2.8447084729292698
-3.990127168269164
-0.8225465746027144
-3.949878832334299
-4.475704337513275
6.506743532142574
0.20962938980752172
1.1251877431545656
-0.13399281701425517
0.5359489801124195
-1.9663604394392786
4.976765642292561
-0.3874010654310069
2.165201619921897
2.917169322623815
5.47638808131797
-2.470375166641584
-2.0164493915305495
1.206961480855018
-2.706937663698291
-5.168543941133165
-1.3339298067745504
1.1217708073707107
1.1615187430694196
-1.64735027721096
-0.3026842185872272
-0.30367528845479314
4.827501327201471
-3.2964357899093026
5.02448432180974
-1.2370093217948086
3.6418844429143005
1.3430361518146363
-1.2293717009210468
0.2672277377188981
-5.391348496902482
-1.7883572074961964
-1.0121704429829987
-0.7617277321821435
-2.988203652895527
0.1845228033490271
1.2820016172254802
-4.229132575023978
-2.539725879760203
0.9371550734191665
2.049189079164353
1.3335249438013923
6.074672466196987
-2.8024313277704658
-0.2995955106932467
4.572154565159762
-2.3469225078845914
-0.5918517727281833
6.2746258686756216
1.1335188187755671
-1.3085025394700474
-0.6201150163853556
9.237183412280476
-0.98335673442228
3.338243408143688
-2.444571940727064
2.010815760192929
0.5345959733403293
0.7654247789441582
-7.061408282209673
-4.130600043229112
-1.2351133579007991
5.344279178940372
-2.662750796736008
-3.636214215966959
-0.8386358934655871
5.562047654585765
4.514810613210202
-4.7544582748555495
2.398127368726048
-0.2198238836203936
4.611065142627333
0.6956665079896802
-2.5251516173636745
-6.988122121511467
-0.24883547555192548
-5.027144721421192
-5.630315814140387
-1.059537108584808
-0.6452300163135041
1.5741017291581787
2.434650540925743
6.023200768104108
0.5995488958248573
1.0586733716869354
1.4337776099240025
0.7222199754150745
-1.2747677618828326
0.7611779952805994
-4.723877704062592
-0.674451460225857
1.8512931561866386
9.353017312924633
3.6812249858061517
-3.1962023729253235
0.7416707157857851
-1.1650657419510984
2.073721798644934
-2.56143809901869
0.2802497902117552
-4.183999211558732
2.120231143392972
-0.2866978866962245
0.5548774243106644
-4.277366905326254
-2.873180554583658
1.7716371207892576
2.5879927045500257
-2.6282151507982023
2.9290112557527634
1.8587113111232063
2.021815838364001
-1.478032770643406
-6.637423518655667
7.316542506116103
2.2409716747502686
0.6526709959893359
8.54126537720837
4.475992262813435
-0.3944124356486369
-3.7787613553548693
4.991928303199209
-8.40021170124077
-0.08729678910324394
-3.663958314743199
0.23669497513074256
-3.467547506283449
1.0334075109644782
-1.6492067162017594
-1.2696795728898536
-2.757077002391149
-1.2842239404166695
-0.8078213540858846
0.29014038509106516
-2.687386750530166
3.97074682404975
0.40123598284556494
-2.8724392644263337
0.32326020312276565
-0.8443453482932489
-1.3750100144744246
-4.120862283983248
2.79462529876056
-2.478695177793627
4.629423301919003
-2.9477660806546195
3.6928607996711165
0.6257692586360964
-0.8597286534223685
-2.60521963260151
2.957475959183918
-0.5425148921908599
-4.118395296968578
-0.6621025917475143
-0.6149547497031767
6.022855677477511
-0.683014231536571
-1.9824883679289158
1.1551486720835202
1.2251075991768305
1.3382257770423454
-1.26700279953133
-3.2979439958237924
-2.3807785730031825
-0.749876248306244
-0.4652647320817566
-2.1858373919551677
2.7359605128724898
0.3638760845578514
1.5659334915710543
-0.6104055447599924
5.379281478232494
2.8223207062714786
3.3018641931222197
1.2448056409819421
0.8164923838158454
0.3704674650180159
4.9235074309969535
-3.639176679824747
-1.0283443794763962
-0.826565250424338
-1.583724027649707
0.9179766631390996
1.884272482427544
-2.1627584980009646
1.0470268845195636
-0.658204012795606
2.713842952802558
-0.9419461304615263
-5.985212115542828
-0.8412465401600119
-1.2968850102238128
-1.409136233049528
3.212297958929095
2.1916236929969934
-7.270792461579843
-1.3448838377814627
-5.651851996419081
0.6690367288241513
-1.0376999770526596
0.47215723309582963
-0.22370351098636324
-1.9401589418873844
1.3529326458483752
-8.512560301166781
-2.3545804857806947
-1.1488853154479641
3.0676894959464023
-2.991155318032255
1.044671493360407
-4.477017517705097
-2.1482784710577882
-1.0440493512938798
0.10970512729893032
1.5885295108827915
-2.340076016558553
0.6669116486581005
0.9103191915707387
1.131827720449811
-0.7495056504548787
0.36187142451448867
0.20338923837527648
-2.804549427363177
-2.2918485648653246
4.565440969595613
1.445339419147945
-2.1981486350437485
-4.095329738121553
3.699066433839022
-0.9932052711683582
-1.8968825988112628
-1.0583681170805888
0.16898357307067222
-1.3324361697601066
1.2179781202828273
-0.26817864400147645
0.1817030951522557
-1.1485870463041212
-0.032146663360384034
6.805855640667334
3.2442892416001388
0.44508203575206295
0.8656286302238804
-4.792950161715295
-2.1769876463276536
1.4258570529168515
-2.4039222270008485
1.2066636632870005
7.66145587395765
1.0422351856544012
0.7490516569474712
2.039971731649697
-0.9141354413148488
1.866097603781765
2.4125784027903325
-2.3770610201554287
-3.9589897019047298
-1.1693467821601629
4.849180418801639
-1.1478819178619433
0.4777727689002649
1.725471837101264
-1.0055229707001747
-3.3716829624349107
-1.1504576871548486
-0.5912477084852066
-2.8877718765342575
-0.9413190092603929
-4.581121321675838
-1.9828528665979328
-1.8180314210042476
3.1717175946803517
-1.2328993009834823
4.667741401487231
3.2535907728327222
0.197512788541738
-2.980790010718404
2.7064903613396734
-4.141481116160657
-2.0209741002514683
-0.7176863767591524
0.857726801481812
0.6275594957947445
-2.795041771613642
-1.385802170353597
-0.7563787641300618
1.4848447336398394
-4.2465702881403296
-2.6842662693755983
-3.5795109051045357
-0.6904318209386981
-1.2811238842964303
1.9351690992315485
-2.3439599658630477
-3.250208504362279
-3.6884443184172806
1.421507670320066
-4.7917619773758195
7.373312613184677
-2.2348088637628525
-0.5271602593542003
-5.046671037921508
-3.307603162348294
2.0966653472689103
0.7247075763001536
2.636893530523488
-1.7811013144099748
-0.49910329328791786
0.9872957113833554
-2.368404542523661
1.4596635196562517
10.868160872227023
-1.2374747305118254
-2.8653421945903608
2.6278702213376106
-2.03972293801542
2.27959718742376
-0.7859950315590473
-4.708587896739069
-2.2660356663912373
4.221664237474103
-2.3029911847345845
-1.5835171292852965
4.085918771858692
-3.6812081520200746
-4.193059686947979
3.444063917516156
-1.6710382426830896
0.5639250494297726
-4.2876643370056255
0.568993636428389
-3.054688232231213
4.71323278806358
1.9913483045784106
-1.7847461344973112
-0.5609635097176644
-3.9288789100946095
0.49215381572099626
-1.1883862372875078
-4.214459631810387
5.626693143282376
1.3984311986731253
-1.6640459853471792
-0.7024631574004152
-0.36579109661356407
-1.0108622038153234
-1.3823410494977877
-0.8473387497637703
-4.683308164521855
6.521585408269322
-1.5112987306569632
-0.3952707808244179
-0.1515603887651564
-4.928342176440698
4.142836677823713
-4.196382403299111
1.4419945861574377
-2.2070420387133582
-3.669983866780428
-1.8518115279515666
-3.577720523031817
-2.407740667410657
0.658037904934276
-4.373207448795082
-1.0249821716469534
5.911500588448479
-1.4291710527150117
-2.235575970073708
-1.8588733760973266
-0.9876521184463507
-5.067641728236665
-1.046933269999888
-6.222869314745033
1.1109202744651483
5.175607869513472
4.062027859992117
-0.13135344110379582
-0.16920864385217002
-3.3672422327740352
-3.762568365738216
-0.6086061609360223
7.939119708527507
0.08885878671978345
5.656042991324724
-0.1877234152706052
-2.8281144498941493
2.1722479080048935
-2.6029798444424426
-0.9366200245897401
1.370476882953442
-4.227856626982164
-0.06730233528351494
-3.774763894051905
-1.5553432554178785
-4.417946329772122
-3.136371127517104
-2.1011307518673705
-4.473479739401531
-3.201309876231739
-2.380406966939403
-0.3256904157350516
-2.2592975629082703
5.117555084389596
-1.6268546370016406
-0.055213681465990705
-0.47747050233699023
1.3463811809538606
-2.76502947941153
0.19187292633147146
0.8766137984351244
-2.8511079511125934
-1.6501081066329242
2.1060540556091056
-4.18707435713201
3.9916363439670532
-0.5116589814459747
0.08015063107064775
4.2970716456799884
-3.8885722489824937
-3.61349030567284
-1.8611252777577414
-0.9995598138497431
-0.5422156803954938
5.739609815952641
-1.5948852967138971
0.28371360439360244
-0.14356423747452315
2.524230778781382
-0.11131948504294431
-2.17132196411859
-1.325430722588846
-2.7742187593380896
-1.5067774676113626
10.630596891580309
4.677242189612289
-1.2687271538103475
-1.1061703071954623
-2.5257001157435317
0.34162748126167625
-1.7549801139394967
3.881550406093157
-1.1523235463956423
-0.2752843077381203
-6.711135462555752
1.7576231817327919
-1.4013278935895845
-0.7985925945077792
0.26004208756485864
-6.694200241790536
1.0610197620228232
0.5689854918560476
-3.704975974772559
-0.9817850381027096
-0.44738006190830804
-3.2600884214515062
-4.051449213043097
4.839446766499535
3.671612771415088
3.0401056421005905
3.411827136525478
-2.9003906026606914
0.8078994191119526
1.4603444563439376
0.3224921513541419
-5.396486778499523
-1.3319942582954112
5.4868587847887555
-1.1044785786016786
-3.219118148440485
-3.473341281119066
4.737255577597739
-2.8278057274976547
0.1562781848618543
-2.863164588094023
-2.2444378838781365
4.0947462937218155
-4.349969116261977
-0.5074974558630407
-0.44063762294018805
5.905019815458123
-3.0879899493819503
2.644897663375226
-3.2759852294359106
3.7895282078255557
-3.0957117781853136
5.839454809331186
-5.102833699195623
-3.541798752884388
-1.540041115636473
1.5837496206541493
-2.9471282722125776
-3.340399017673266
-4.566910118003658
0.7566372588374078
-6.325328323990119
0.20841435967469976
0.6825585530053961
-5.6703234249161625
3.2850624322998874
-4.131155643284542
-1.3575673092571179
4.8781975756439016
-1.5343905360516867
-0.37529519392121863
-1.7105509902738478
-2.110761178104628
1.3309281509740085
-2.4993645683699257
5.074163623680367
1.7691400645631654
-3.637967558973477
-0.9322447066021717
-1.605720477514072
-7.899326353664865
-3.7248688907128846
-4.269200237500183
-2.283602425549547
-4.019938298353243
-0.37311250409036645
-4.0037280535344575
1.86851952943501
-2.8054912362882973
-1.0128328850191617
-3.885744605859703
-0.6424915411125511
-2.7839755375166186
-4.49163385284679
-0.896930915536622
0.7280505020349997
-0.2995554134495365
3.081719219912635
-4.467598447376139
-4.918841090526864
2.0768207987423515
-4.836923275887985
-6.161036685602919
3.3700246932335634
-0.46137952404881766
-0.14608401955048178
-0.8224079719915365
-1.9267294508660806
-0.9492065344721152
3.758241829453407
-8.531941780353543
7.510582913203412
2.1506714172778647
-1.5704512889034923
5.381546941473779
1.700007009562805
0.4967421607922344
1.4481473941771439
0.13955666694085883
4.84658567274614
-0.8905071200453288
5.518959117393712
-2.0630003120480107
-3.9474538585972616
-0.38837792612362343
-2.5629435363018978
1.8637282777774054
0.8147259081295161
-2.2437682686683287
-2.816124482055084
0.6511920060685165
-1.9209544778919836
-4.9605888936058555
-1.5867228378682536
-5.1369805767156205
-1.7344011435220918
-3.5448641652461945
-5.848063530676277
-3.7303664407327553
-3.079077889485282
2.855615209547483
-5.528055547535125
0.16209157346093175
-0.5139113774689914
1.657185180481062
0.9449756174974314
-0.7537964260790997
-1.235525905197698
-1.175180585972825
-4.684754005807587
-4.947901522735619
-3.113038088956233
-1.4770415541275095
0.802042515854433
-4.882506173186043
-3.692823091518368
-2.5537693807672315
0.8388116542839718
-2.276927353697262
2.787506885271505
-6.8359233406808055
-1.8275978727042728
-4.879363591438984
-3.991565798522536
-5.302356168245472
-0.8490019023126498
-1.3353101758543053
6.268714641897864
-5.8126923689981735
3.5983028217698694
-2.0694514226142613
-4.748018465857628
-3.569714842790469
3.498676529317897
-4.759641580370182
5.150978944046586
2.629164356493522
-0.9754281713985394
2.260107643064463
-5.223920518728038
-0.6245893836014785
0.8780890351331626
-4.630928367272414
-1.613665019413773
-6.109067553568196
-3.415251220876192
-0.9991380743166642
-2.223921784428723
-0.9267952895468254
5.454767069988546
-0.45785613291897803
-2.5493668248239345
-2.027028111304512
-5.121263783803095
-3.341256546136004
1.3247873212479162
-4.317744775949866
2.991466688980849
-3.804007964190867
-1.292824332183509
4.849216461148181
-1.360049991561432
-4.155414232946653
-2.302206500556781
-5.107847187685791
3.6766318981623947
-1.162669627431108
-5.2631945086206855
-3.4806812028443908
-0.7585608005759585
1.3923080231837621
1.369380382029954
-2.5149871931621908
-3.345071710532735
0.815354454836159
2.3377193835063506
0.8450883681459848
0.3679230250403602
-2.246475428098794
0.47011230111318447
1.5535440432755465
-2.8178680107324565
-3.7434949939080986
-2.7771182129327796
-1.2908788091887702
-0.26730144910495174
0.20445067323276012
1.223102325970988
3.6857148436982357
2.953448246611698
4.300526924478726
-2.670936553125725
2.891388917672423
-0.5588562015749025
-4.980775039278407
2.2281006060200435
1.3852005836896581
3.213758369217366
-9.524691550151866
-0.11334586754062732
0.7791352520806568
0.790790653030614
4.593940522770188
-5.695768735848416
3.9867085127013366
-0.031805266658719564
1.298104792734005
2.1231756237153774
0.06093721614080102
-2.373362166549868
-0.6977564941220725
-0.047473794680486736
0.6075302491349014
-0.5156032873272793
5.555469327558758
-0.5433540284696079
1.22866067696963
1.6116553662672406
-1.9177954801175756
-3.0318219390266945
-1.4521114413399967
-4.467427587601299
-2.644244442843495
-5.952295609247582
-2.652919207818776
-2.5070082216350063
-0.01463873072952865
-4.331668406191553
-1.1422533739586458
1.2869094074806162
-2.2871853064809784
-4.720174984621378
-4.93519302193944
-3.124317239446563
-1.6421745074240583
0.8514358743716475
0.8578569296769007
-2.074812427844077
1.9376279817880124
-3.085695105123131
-1.5351828694926306
0.3862105120623019
-0.4554116272641184
-2.8978645779381895
-4.189180127055616
-10.29044489778766
-3.7601502908383435
-4.692662263185184
-2.4292214764393947
-6.314356533016404
-0.20327445584407694
0.7127774132202903
-2.7786481188658247
1.3176742869982818
-2.534836113655313
0.725080166084255
-6.193603109570931
5.7760919161494355
-2.941465096931604
-3.786600813035369
-0.9181242249217396
-3.8283601356711476
-2.8835769823942874
0.21140219474479
-1.4710573470417496
5.311404090083643
6.641621180249591
-3.2320162770851115
-2.0121872641651284
0.08588930063368473
0.8370916042489165
3.9617644229852718
-4.080885763840568
0.3954060983978401
4.29326974187946
-3.695311699551891
6.47131067040373
-1.4088301294702494
0.6778860870222116
-0.14845977796593215
-1.5228362517557081
-3.294237894894444
0.6307911601481004
-0.5208021777414362
-7.437393950137426
0.6214855334936819
-0.505392125664447
2.101296688365669
5.832073687817262
-4.197054517672516
-2.8317614713295525
-3.6071603974493116
-3.5130939988524
-6.32206643840295
2.688069042796488
-2.3298853132322477
0.3211205466453395
-2.068683061510197
-2.966245013058831
-7.5713468830653285
4.172993054652274
-0.4709398643622071
-2.108854205612025
-3.2941291344730805
0.6418274680817062
1.1022464613044314
